{"version":"0.5.4","metadata":{"date":{"year":2025,"month":1,"day":17,"hour":19,"minute":29,"second":57},"loudness":-17.776248931884766,"gain":0.6957128459315831,"name":"SLAMMIN_RIVERA_M100_2_STRAT_CLEAN_BALANCED","modeled_by":"stjepanherceg","gear_type":"amp","gear_make":"tz-make","gear_model":"tz-model","tone_type":"overdrive","input_level_dbu":12.2418,"output_level_dbu":12.2418,"training":{"settings":{"ignore_checks":false},"data":{"latency":{"manual":null,"calibration":{"algorithm_version":1,"delays":[7],"safety_factor":1,"recommended":6,"warnings":{"matches_lookahead":false,"disagreement_too_high":false}}},"checks":{"version":3,"passed":true}},"validation_esr":0.002116447837096921}},"architecture":"WaveNet","config":{"layers":[{"input_size":1,"condition_size":1,"head_size":8,"channels":16,"kernel_size":3,"dilations":[1,2,4,8,16,32,64,128,256,512],"activation":"Tanh","gated":false,"head_bias":false},{"input_size":16,"condition_size":1,"head_size":1,"channels":8,"kernel_size":3,"dilations":[1,2,4,8,16,32,64,128,256,512],"activation":"Tanh","gated":false,"head_bias":true}],"head":null,"head_scale":0.02},"weights":[-0.15397167205810547,0.4173603355884552,-0.8586287498474121,-0.5552248954772949,-0.3754224181175232,0.09031886607408524,0.01726084016263485,0.7447407841682434,-0.058406442403793335,0.22011730074882507,-0.3968823552131653,-0.032281145453453064,-0.8855414986610413,-0.6259914040565491,-0.4469718337059021,0.029351387172937393,-0.049138378351926804,0.19439083337783813,-0.038049954921007156,0.029220132157206535,-0.05236117169260979,0.059342000633478165,-0.11539196223020554,0.22773106396198273,0.041139088571071625,-0.07142466306686401,0.24462054669857025,-0.07146759331226349,-0.18001654744148254,0.07183891534805298,0.006059020292013884,0.20803748071193695,-0.2019895613193512,-0.12294761836528778,-0.11037826538085938,-0.1079494059085846,-0.0955728217959404,0.21225672960281372,-0.048807062208652496,0.007426909636706114,-0.11095738410949707,0.02016053907573223,0.06663193553686142,-0.04012922942638397,-0.2054564356803894,-0.12318112701177597,0.0015564400237053633,0.19913052022457123,-0.001951243495568633,-0.09822336584329605,0.18329186737537384,0.19676481187343597,-0.032728876918554306,0.13208222389221191,0.1591068059206009,-0.1713787168264389,0.14120148122310638,-0.04720132052898407,-0.19135642051696777,0.03711793199181557,0.12607696652412415,0.11825986951589584,-0.12045211344957352,0.03561645746231079,0.012143440544605255,-0.18902131915092468,0.07434330880641937,0.11628636717796326,0.2503052353858948,0.036564841866493225,-0.20861513912677765,-0.2299094796180725,0.15925107896327972,0.027138566598296165,-0.0431012362241745,0.2320883572101593,-0.055334411561489105,-0.28904104232788086,0.11580123007297516,-0.002466814825311303,0.036202702671289444,0.024831391870975494,0.18381507694721222,-0.21564526855945587,0.09514119476079941,0.06944137066602707,0.14741158485412598,-0.16886290907859802,0.0032705424819141626,-0.24416030943393707,0.14361684024333954,0.15155687928199768,0.2558276653289795,-0.06405139714479446,-0.23462212085723877,-0.2669143080711365,0.1720914989709854,-0.018380191177129745,-0.25414881110191345,0.02730507031083107,0.04336944594979286,-0.07407127320766449,0.03853064030408859,-0.1297106295824051,-0.30851930379867554,0.09933874011039734,-0.2003858983516693,-0.28514450788497925,0.0895097404718399,0.01949474960565567,0.07435460388660431,0.005648348014801741,0.027441497892141342,0.1972976177930832,0.161174938082695,-0.21346379816532135,-0.07885812968015671,-0.007907993160188198,0.11568310856819153,0.08237336575984955,0.0717809796333313,0.10173191875219345,-0.024034865200519562,0.08176390826702118,-0.03877992555499077,-0.0355527438223362,-0.0136184711009264,-0.14837726950645447,-0.09592272341251373,-0.12270678579807281,-0.05480368062853813,0.055697109550237656,-0.1115773394703865,-0.10394841432571411,0.05534045398235321,-0.029967453330755234,0.14346915483474731,0.09151526540517807,0.09462693333625793,-0.007730047218501568,0.08494549989700317,0.06884392350912094,0.24147763848304749,0.047516729682683945,-0.10408598929643631,0.043730687350034714,0.1757957637310028,0.028629550710320473,0.02453605644404888,-0.0634484738111496,-0.12041499465703964,-0.024608561769127846,0.02011902630329132,0.09570015221834183,0.18038947880268097,-0.08663798123598099,0.11176686733961105,-0.17723557353019714,-0.1581588238477707,-0.12937591969966888,0.20768702030181885,-0.18415410816669464,-0.20127590000629425,-0.32763293385505676,0.1359109729528427,0.07294169813394547,0.1398179829120636,-0.11354241520166397,-0.20225581526756287,0.19056040048599243,-0.037726279348134995,-0.13260462880134583,0.33372560143470764,-0.1130509302020073,-0.20766597986221313,-0.09729582816362381,0.14327789843082428,0.004942579660564661,0.1186918243765831,-0.25604572892189026,-0.09023550152778625,-0.23553599417209625,0.2654898464679718,0.11222533136606216,0.2644541561603546,-0.07350046187639236,-0.043697457760572433,-0.2243412435054779,0.05273152142763138,0.1600033938884735,0.32222771644592285,-0.06254750490188599,-0.1698751151561737,0.1900041401386261,-0.24674248695373535,-0.14048166573047638,0.12202510237693787,-0.11180588603019714,-0.15538673102855682,0.20115646719932556,-0.1583957076072693,0.01901068165898323,0.09938986599445343,-0.25708863139152527,-0.1476183831691742,0.02402169443666935,0.06937900185585022,0.1496126502752304,-0.021732471883296967,0.20379620790481567,-0.055580124258995056,0.010350109077990055,-0.17043451964855194,0.022580139338970184,-0.023971576243638992,0.22557637095451355,-0.16603660583496094,-0.10209938138723373,0.31615903973579407,-0.17325034737586975,-0.05092211812734604,0.3328336477279663,-0.004727834835648537,0.016361886635422707,-0.3313137888908386,0.12424330413341522,0.024128463119268417,0.21031121909618378,0.013093166053295135,0.008049938827753067,-0.19741471111774445,0.17493869364261627,-0.055780742317438126,0.2854503095149994,-0.007284617517143488,-0.05260990187525749,-0.12225120514631271,-0.03374494984745979,-0.09540895372629166,0.2390051782131195,-0.012508388608694077,0.05356757342815399,0.11486539989709854,-0.0824902206659317,0.04413270205259323,0.05984436348080635,0.049610916525125504,-0.14844819903373718,0.2012753188610077,-0.07993069291114807,-0.11227891594171524,0.21461406350135803,0.061603985726833344,-0.009201236069202423,-0.2155909240245819,0.03936080262064934,-0.2782120406627655,0.1594461053609848,0.06256477534770966,0.022662455216050148,-0.16206379234790802,-0.015507771633565426,-0.03361546993255615,0.21074214577674866,0.16042914986610413,-0.1583777815103531,0.05125081166625023,0.1456727683544159,0.001461142674088478,0.12435809522867203,0.03673179820179939,0.03662208095192909,-0.2269681841135025,-0.0659162625670433,-0.11099454015493393,-0.07387055456638336,0.21206237375736237,0.01841321960091591,-0.1078614816069603,-0.06480773538351059,-0.13930925726890564,-0.031724099069833755,-0.043896157294511795,0.23008669912815094,-0.061192579567432404,0.023067248985171318,-0.16389018297195435,0.13454653322696686,0.07317228615283966,-0.13061200082302094,-0.026871981099247932,0.1263969987630844,-0.06821886450052261,0.08778376877307892,0.07334088534116745,-0.20110736787319183,0.1911104917526245,-0.001406522118486464,-0.05836016312241554,0.04030606523156166,0.03456556424498558,0.11879504472017288,-0.10792235285043716,-0.016592497006058693,0.028818070888519287,-0.020884785801172256,0.16919630765914917,0.0875864326953888,-0.023607324808835983,-0.12054436653852463,-0.1423301100730896,0.06465307623147964,0.15774023532867432,-0.07702144980430603,0.1397658884525299,0.1993311196565628,-0.10090363025665283,0.0824277475476265,0.16408857703208923,0.017430070787668228,-0.06716354936361313,-0.08898385614156723,-0.10881882905960083,0.0360347181558609,0.164615660905838,0.15454092621803284,-0.002206834964454174,-0.0860760509967804,0.08127765357494354,0.017947720363736153,-0.012746318243443966,-0.1090874895453453,0.05516991391777992,-0.0177255030721426,-0.12066546082496643,0.14254742860794067,0.21559648215770721,0.14756689965724945,0.18713074922561646,0.20093396306037903,-0.05780256167054176,0.0361836813390255,0.2239539623260498,0.05536302179098129,-0.0028051300905644894,0.2339095175266266,0.04512610286474228,0.16253438591957092,0.012136937119066715,0.027933716773986816,-0.1073288694024086,0.017584577202796936,-0.2992737889289856,0.08183468878269196,-0.022251753136515617,0.305738627910614,-0.08080623298883438,0.11535745859146118,-0.35182100534439087,0.0657915472984314,-0.14144043624401093,-0.3859618604183197,-0.08072726428508759,0.07196950912475586,-0.17062687873840332,0.16918131709098816,0.07410211861133575,0.10547782480716705,-0.12829430401325226,0.016266386955976486,-0.1565723717212677,0.08360129594802856,-0.05142505466938019,0.1801033616065979,-0.17069317400455475,-0.0367656946182251,-0.1332455724477768,0.106416255235672,-0.0033199768513441086,0.3494468033313751,0.08593571186065674,-0.001500581973232329,-0.1917978823184967,0.15486861765384674,-0.0031454695854336023,-0.08786927908658981,0.0915110632777214,0.042392548173666,-0.3019506335258484,0.09917601197957993,-0.030919425189495087,-0.28362104296684265,-0.04837607219815254,-0.12417683005332947,-0.36786365509033203,0.12099344283342361,0.04735245183110237,0.10449755936861038,-0.07299565523862839,0.16161207854747772,0.29184669256210327,0.036730095744132996,-0.23476123809814453,-0.05999142676591873,0.043887797743082047,0.09759499132633209,0.33736586570739746,0.13351844251155853,-0.25866183638572693,0.2772601842880249,-0.060673799365758896,-0.22956091165542603,0.3213946521282196,0.025394920259714127,-0.3043447434902191,-0.21385468542575836,-0.059087250381708145,0.17872615158557892,-0.05634903907775879,0.19075997173786163,0.006403878331184387,-0.2908370792865753,-0.01670418493449688,0.2743380069732666,0.27438193559646606,-0.05487215518951416,-0.1513976901769638,-0.3013000786304474,-0.07903733104467392,0.2573988139629364,0.10058073699474335,0.08506183326244354,-0.07227525860071182,0.17443379759788513,-0.05803200230002403,-0.22893428802490234,0.23249246180057526,-0.08689431101083755,-0.13359777629375458,0.06927693635225296,-0.11540349572896957,-0.34531790018081665,0.17633211612701416,0.1264333575963974,-0.3311809003353119,0.11277937889099121,-0.07042475044727325,0.17195729911327362,-0.10458701848983765,0.07885167002677917,0.15258999168872833,0.15804283320903778,-0.06077934429049492,0.0383058562874794,-0.16513441503047943,0.34467899799346924,0.05003795772790909,-0.0006106019718572497,0.10149258375167847,0.00021632651623804122,-0.22442878782749176,0.15097634494304657,0.06461561471223831,-0.054941073060035706,-0.1653287410736084,0.036184776574373245,0.06609929352998734,0.03928473964333534,-0.029635194689035416,0.02886098250746727,-0.15319961309432983,0.10193628817796707,-0.03302261233329773,0.15015150606632233,0.054793067276477814,-0.0674651637673378,-0.33589693903923035,0.03187543526291847,-0.16100665926933289,0.28242865204811096,-0.0668061301112175,-0.16120797395706177,0.04802656173706055,0.09287377446889877,-0.0898083969950676,0.3269234001636505,0.12909665703773499,0.006636201404035091,0.22039783000946045,-0.003925258293747902,-0.1154402494430542,0.22830237448215485,0.10248444974422455,-0.014395587146282196,0.06169392913579941,0.04415006563067436,-0.08792287111282349,-0.2588503658771515,0.16438046097755432,0.14371153712272644,0.06037489324808121,0.043158311396837234,0.04658651724457741,-0.12317530810832977,0.1803545504808426,-0.09973068535327911,-0.1557457000017166,0.11867328733205795,-0.05303404480218887,-0.146859273314476,0.019204959273338318,0.11840799450874329,0.16654834151268005,-0.10965092480182648,0.040669895708560944,-0.13129498064517975,-0.04620371758937836,0.03324464336037636,0.2858441472053528,-0.07344270497560501,0.06592260301113129,-0.21172000467777252,0.10772727429866791,-0.0968690887093544,0.10156627744436264,-0.1456393003463745,0.11728480458259583,-0.23946303129196167,0.05846618488430977,-0.059800416231155396,-0.028260517865419388,0.21249036490917206,-0.12876927852630615,-0.3200680911540985,-0.051994577050209045,-0.021310703828930855,-0.23879584670066833,-0.03625119477510452,-0.06612846255302429,-0.17391477525234222,-0.017560584470629692,-0.0024230959825217724,0.13365517556667328,-0.12060651928186417,0.14798811078071594,0.012318846769630909,-0.08608444035053253,-0.08351131528615952,0.06873307377099991,0.1254119575023651,-0.060797009617090225,-0.28233036398887634,0.1499633491039276,-0.014222001656889915,-0.10913900285959244,-0.002365260850638151,0.05815477669239044,-0.15874704718589783,0.10575792193412781,-0.061240918934345245,0.0020522563718259335,-0.09072132408618927,-0.1226046159863472,-0.12671636044979095,-0.21453607082366943,0.05572451651096344,0.10342688858509064,-0.036339376121759415,0.23481203615665436,-0.037050534039735794,0.13937559723854065,-0.003040965646505356,0.08033081889152527,-0.11761032044887543,0.07347184419631958,-0.015477020293474197,-0.037873394787311554,-0.033538758754730225,-0.044146258383989334,0.16642720997333527,0.040936410427093506,-0.2550433278083801,-0.12115470319986343,0.1150159165263176,-0.14698658883571625,-0.06396764516830444,0.11747436225414276,-0.07675795257091522,0.1271887868642807,-0.002765870885923505,0.03468535467982292,-0.16970263421535492,-0.1941666305065155,0.23079513013362885,0.076533243060112,0.1448609083890915,-0.21394966542720795,0.0985444039106369,0.0494394525885582,0.2188430279493332,-0.08658502250909805,-0.13782627880573273,-0.00928211398422718,0.17502279579639435,-0.14339981973171234,0.022391021251678467,0.10704058408737183,0.009748601354658604,-0.14440228044986725,-0.054722707718610764,-0.03669927641749382,-0.15061990916728973,0.1314360648393631,0.020668502897024155,-0.03937192261219025,0.0871414989233017,0.011917006224393845,0.10359077900648117,0.17359870672225952,0.09512493759393692,-0.15696300566196442,0.09843166917562485,-0.04472368583083153,-0.04813315346837044,-0.0013134053442627192,-0.1479896754026413,0.1939070224761963,0.02802520990371704,-0.21751126646995544,0.08106741309165955,0.1282995045185089,-0.04476858302950859,0.13615256547927856,0.051212746649980545,-0.030718738213181496,0.05369911715388298,-0.02279898338019848,-0.132072314620018,-0.14547401666641235,0.004477213602513075,-0.00259106932207942,-0.07014130055904388,-0.017866795882582664,-0.06794988363981247,-0.027908291667699814,0.16160935163497925,-0.0019273957004770637,0.04679961875081062,-0.13729360699653625,0.046481531113386154,0.012335652485489845,-0.07841791957616806,0.19984818994998932,-0.1711064875125885,-0.1529112458229065,-0.14915888011455536,0.08752283453941345,0.1444874256849289,0.01708521693944931,0.03503215312957764,-0.001669554621912539,-0.11246716231107712,0.17322176694869995,-0.09078164398670197,0.08915840089321136,0.08786751329898834,0.005032756831496954,0.030488351359963417,0.021346958354115486,0.13852927088737488,-0.057241275906562805,-0.08996637910604477,-0.04731262847781181,0.1218249499797821,-0.005738676991313696,0.10239644348621368,0.06010276451706886,-0.07168495655059814,0.07955086976289749,0.04252354055643082,0.057495106011629105,-0.1187913566827774,0.061180561780929565,-0.07827853411436081,0.04041009768843651,0.05333688110113144,0.06817545741796494,-0.09732124209403992,-0.12291424721479416,0.1371048390865326,0.08820577710866928,0.07641349732875824,0.0017501636175438762,0.1132856234908104,-0.15536606311798096,-0.036290448158979416,0.12597940862178802,-0.26983124017715454,0.12926821410655975,0.046261776238679886,-0.23568357527256012,0.14548568427562714,-0.1011275127530098,0.18303367495536804,-0.1839028000831604,-0.03880880028009415,-0.03760816901922226,0.11059153825044632,-0.05985338240861893,0.26149246096611023,-0.11146897822618484,-0.09191036969423294,-0.2978366017341614,-0.08320128917694092,0.09790891408920288,0.12370631843805313,-0.09277497977018356,0.00866715982556343,-0.07358796149492264,0.21397003531455994,0.13571694493293762,-0.24839356541633606,0.06014103442430496,-0.06301160156726837,-0.25238949060440063,0.12647338211536407,0.15683892369270325,-0.28270161151885986,0.1827058345079422,-0.04928389564156532,-0.201252743601799,0.2032565325498581,-0.016689594835042953,0.0336519218981266,-0.16573098301887512,0.11293534189462662,-0.16913878917694092,0.06698642671108246,0.06803065538406372,0.0021263028029352427,-0.3103773891925812,0.0028961687348783016,0.023671859875321388,0.17107801139354706,0.07760465145111084,0.03360092267394066,0.3047458827495575,-0.06562674790620804,-0.12430553883314133,0.14841367304325104,-0.11167240142822266,0.07283684611320496,-0.10404351353645325,0.10658099502325058,0.07886457443237305,0.20593172311782837,0.049351438879966736,0.2056717723608017,-0.26453477144241333,-0.10791825503110886,-0.10388500243425369,0.256818950176239,-0.1524452120065689,0.23443712294101715,-0.14199331402778625,-0.09828000515699387,-0.13168233633041382,0.3266259431838989,-0.10532231628894806,-0.14590796828269958,0.22458338737487793,-0.12862016260623932,-0.019191192463040352,0.27917051315307617,0.09714656323194504,-0.18733470141887665,0.3494946360588074,-0.07562284171581268,0.037029512226581573,0.05758294090628624,-0.12724508345127106,0.17155872285366058,-0.07692897319793701,0.05247921869158745,-0.05516723170876503,-0.11344489455223083,-0.03688538819551468,-0.06125853583216667,0.037006594240665436,0.012063942849636078,0.005710778757929802,-0.16232164204120636,0.025086363777518272,0.11585330963134766,-0.05309943109750748,-0.01486415695399046,0.002335371682420373,0.16275793313980103,-0.06841034442186356,0.046293459832668304,0.3787492513656616,-0.5243369340896606,0.7868762612342834,-0.6329851746559143,0.05140501260757446,0.7882735133171082,0.890727698802948,-0.5310558080673218,0.385525643825531,0.07485082745552063,-0.5207860469818115,-0.35080865025520325,0.23285946249961853,-0.6760495901107788,0.14411962032318115,0.4202271103858948,-0.1319587081670761,0.14898331463336945,-0.055584944784641266,0.19637931883335114,0.24503663182258606,-0.11970151215791702,-0.035156406462192535,-0.16193175315856934,0.008121166378259659,-0.06771034747362137,-0.040515679866075516,-0.1354140341281891,-0.006159400101751089,0.002932228147983551,-0.04180743172764778,-0.046084847301244736,-0.2875913679599762,0.027789035812020302,-0.1676335632801056,0.05155683681368828,-0.10352446883916855,-0.15283650159835815,-0.09949202835559845,0.10990554839372635,-0.03800328075885773,0.12264508008956909,0.16468077898025513,0.19973501563072205,-0.1036539375782013,0.050167813897132874,0.015713868662714958,-0.053341228514909744,-0.04021493345499039,0.26932981610298157,0.11703311651945114,0.25145167112350464,-0.30177828669548035,-0.06885989755392075,0.11017004400491714,-0.33428558707237244,-0.017023827880620956,-0.3057173490524292,0.3567088842391968,-0.0649230033159256,0.11301244795322418,0.042129117995500565,-0.03916995972394943,-0.22067172825336456,0.06364977359771729,-0.12852299213409424,0.14461401104927063,-0.14723561704158783,-0.049099989235401154,0.21653513610363007,0.06268975883722305,-0.2542968988418579,-0.005381179507821798,0.032121121883392334,-0.06673355400562286,-0.03904018923640251,0.12078438699245453,0.13940685987472534,-0.2966640293598175,-0.00839297380298376,-0.05946185067296028,-0.3296836018562317,-0.2062300592660904,0.06752476096153259,0.20496103167533875,0.13052783906459808,-0.003987177275121212,-0.24348242580890656,0.10315748304128647,0.2844609022140503,-0.28699541091918945,0.16558155417442322,0.004793844651430845,0.08502539247274399,-0.129930779337883,0.29760369658470154,-0.035877443850040436,-0.11425173282623291,0.04309144616127014,-0.07547256350517273,0.294495165348053,0.2520236670970917,0.10456990450620651,0.2921544015407562,0.257356196641922,0.1023206114768982,-0.27072834968566895,-0.13395369052886963,0.08256614953279495,-0.08864861726760864,0.3008900582790375,0.2678361237049103,-0.08072228729724884,0.25386902689933777,0.30060070753097534,0.22406882047653198,-0.3817133605480194,-0.13757337629795074,0.023651795461773872,0.026187146082520485,0.06867614388465881,-0.38524165749549866,-0.031469203531742096,0.28291189670562744,0.06514886021614075,-0.24050092697143555,0.07738801091909409,-0.4396982789039612,0.23854069411754608,0.05948012322187424,0.09569583088159561,-0.19942378997802734,-0.24160629510879517,0.16290555894374847,0.1325903683900833,0.22601783275604248,0.02749115414917469,-0.24299363791942596,0.2107609510421753,-0.19322563707828522,0.1423833817243576,-0.059883370995521545,-0.08496828377246857,0.03708251938223839,-0.1823493391275406,0.08919107168912888,-0.19037950038909912,-0.2685886025428772,-0.02096843533217907,-0.1638905256986618,-0.026404228061437607,0.12597467005252838,-0.22517980635166168,-0.1475866138935089,0.3338371813297272,0.18754398822784424,0.028235556557774544,-0.03804764896631241,0.17852474749088287,-0.16905252635478973,-0.332496702671051,0.14730329811573029,0.03516029939055443,-0.13695481419563293,-0.41104939579963684,-0.0437801368534565,-0.02156410925090313,-0.038434840738773346,-0.03392433002591133,0.05375204607844353,0.3096732497215271,0.26310646533966064,0.015075921081006527,0.2822786867618561,-0.258587121963501,-0.26032769680023193,0.13013657927513123,0.3604264259338379,-0.2614412009716034,-0.003253671107813716,-0.10984037071466446,-0.28271979093551636,-0.1050807386636734,0.14415059983730316,-0.22807779908180237,-0.09560536593198776,-0.05272909998893738,0.02970224991440773,-0.20893914997577667,0.13184913992881775,0.18185371160507202,0.13784167170524597,-0.10422246903181076,-0.06723129749298096,0.24966531991958618,0.09634280949831009,-0.05525532364845276,-0.0832936093211174,-0.013444365933537483,-0.24093955755233765,-0.0383555069565773,-0.3071601688861847,0.027143871411681175,-0.19432824850082397,-0.04763659089803696,0.14354173839092255,-0.39780718088150024,-0.30860021710395813,-0.05546184629201889,-0.08240051567554474,0.25490203499794006,0.09675394743680954,0.10927645117044449,0.006803618744015694,0.05824514850974083,-0.0945565477013588,0.3779950737953186,-0.03198126330971718,-0.1730930358171463,0.07446625828742981,0.18934474885463715,-0.24172894656658173,-0.2087944597005844,0.07384750992059708,-0.07761310786008835,-0.08653215318918228,0.037084680050611496,0.10470070689916611,-0.28112903237342834,0.023932456970214844,-0.008605703711509705,0.14309610426425934,-0.023189067840576172,-0.2313700169324875,0.19759748876094818,0.204467311501503,-0.16656909883022308,-0.1919165551662445,-0.1566818207502365,-0.047112006694078445,0.08814838528633118,0.2596367299556732,-0.0894128680229187,-0.3172115087509155,0.21014311909675598,0.03908546641469002,0.02740626595914364,0.579246997833252,-0.3115977942943573,0.2697753608226776,0.007408912759274244,-0.08594351261854172,0.10049469023942947,0.11016885191202164,0.15640906989574432,0.06492828577756882,0.18066342175006866,0.1150902733206749,0.16735996305942535,-0.009964924305677414,-0.12389249354600906,0.04641341418027878,-0.12793071568012238,0.09197048097848892,-0.09072290360927582,-0.12568257749080658,-0.11085167527198792,-0.23199139535427094,-0.18411600589752197,0.2960277795791626,0.024764569476246834,0.1511230617761612,0.17161403596401215,-0.11053001880645752,0.19563455879688263,-0.1294115036725998,-0.09910665452480316,-0.01834324188530445,0.08950319141149521,-0.002790473634377122,0.026678171008825302,-0.11451128870248795,0.07581315189599991,-0.03392164409160614,0.04371726140379906,0.10937242954969406,0.08592502027750015,-0.0011843477841466665,0.07506288588047028,0.006550194695591927,-0.047713469713926315,0.17993490397930145,-0.02713836170732975,0.14238858222961426,-0.10407080501317978,-0.08003117889165878,-0.05020890757441521,-0.16652697324752808,0.004610289819538593,-0.028178328648209572,-0.13436360657215118,-0.04792840778827667,0.07295931875705719,0.09177958220243454,-0.04706312716007233,0.1572752147912979,0.04539615660905838,-0.05760984867811203,-0.00847361795604229,0.12267520278692245,-0.049149494618177414,-0.20385964214801788,-0.061719462275505066,-0.055211763828992844,0.06034841760993004,0.045605193823575974,0.09171077609062195,-0.060765497386455536,-0.27882444858551025,-0.17139384150505066,0.29561322927474976,-0.04673021659255028,0.1100822389125824,-0.24268504977226257,-0.2749040424823761,-0.035574350506067276,-0.12196086347103119,-0.16841301321983337,-0.0773603767156601,-0.09510824829339981,-0.21734988689422607,-0.08786390721797943,0.28350022435188293,0.08220308274030685,-0.23105432093143463,-0.016046177595853806,-0.02107759565114975,-0.02781212516129017,0.06273645907640457,-0.1020699292421341,-0.019209790974855423,0.061351362615823746,-0.11943968385457993,-0.2293374389410019,0.052904896438121796,-0.10656283050775528,0.06782305985689163,-0.01082391757518053,0.026801398023962975,-0.08629319816827774,0.1333375722169876,-0.0685790553689003,0.21239902079105377,0.090953528881073,0.12508033215999603,-0.1887889951467514,-0.19014309346675873,0.1336168348789215,0.03003837540745735,-0.016086425632238388,-0.13768142461776733,-0.19606336951255798,-0.12368932366371155,0.12014608830213547,0.0000993788125924766,-0.17344172298908234,0.02947380766272545,-0.1395728588104248,0.011974028311669827,-0.06346522271633148,-0.04707062244415283,0.001191639108583331,-0.08465384691953659,-0.0665161982178688,0.04420412704348564,-0.09322439134120941,-0.1694023609161377,-0.039533328264951706,-0.06474101543426514,-0.20907798409461975,0.03075779415667057,-0.07280154526233673,0.10632306337356567,0.032310597598552704,-0.038072627037763596,-0.09815753996372223,0.007921980693936348,0.11539676785469055,0.1383378505706787,-0.14196771383285522,-0.09396212548017502,0.04715804383158684,0.1319132000207901,0.05476858839392662,-0.05209033936262131,-0.09205439686775208,0.08197169750928879,-0.07047687470912933,0.12110303342342377,0.03285455331206322,0.22201664745807648,0.09559707343578339,0.2481447160243988,-0.1206464096903801,-0.11772984266281128,0.043658141046762466,-0.1173783615231514,0.09066292643547058,-0.21562542021274567,0.09044677764177322,-0.02473599649965763,-0.02311064675450325,0.06970597803592682,-0.1257687509059906,-0.4352484345436096,-0.02313096635043621,0.23898811638355255,0.40275877714157104,-0.22199393808841705,0.12855318188667297,0.01259541418403387,-0.05295674502849579,-0.05390065908432007,-0.04051326960325241,0.009167337790131569,0.1522420197725296,-0.35006293654441833,0.27734777331352234,0.19510142505168915,-0.2656456232070923,0.16865791380405426,0.24598240852355957,-0.2037719488143921,-0.24180586636066437,-0.09851810336112976,-0.024390913546085358,0.14513787627220154,0.2632446885108948,-0.0779770240187645,-0.42514827847480774,-0.30458083748817444,0.1550944298505783,0.06699410080909729,-0.11067088693380356,0.12939321994781494,-0.0006881777080707252,-0.19577530026435852,0.12062754482030869,0.40173518657684326,0.14736713469028473,-0.013882501982152462,0.2082337588071823,0.29586711525917053,-0.1410381942987442,0.3183026909828186,0.21756382286548615,-0.11092816293239594,-0.5071179866790771,0.15518157184123993,0.14315550029277802,-0.023523131385445595,0.23353728652000427,0.008531911298632622,-0.6958529353141785,-0.1300426870584488,0.020262649282813072,0.21035178005695343,0.18769283592700958,0.03228409215807915,-0.0983733981847763,-0.31925836205482483,-0.0005507356836460531,-0.3235251307487488,-0.19954709708690643,-0.24912454187870026,-0.605204701423645,0.028328463435173035,0.06322379410266876,0.046823158860206604,0.07599402219057083,-0.15286514163017273,-0.03166869282722473,-0.046711038798093796,0.1764121949672699,0.2179320603609085,-0.024275757372379303,-0.1993638277053833,0.1297275573015213,-0.011992197483778,-0.18376263976097107,0.08347515016794205,0.1462729573249817,-0.12494521588087082,-0.09028229862451553,-0.045560792088508606,-0.04682113230228424,-0.019605141133069992,-0.08032499998807907,0.2116716355085373,-0.04285363107919693,-0.0681782141327858,0.12633714079856873,0.058914873749017715,0.06921747326850891,0.07581273466348648,0.2502509355545044,-0.06550052762031555,-0.006352666299790144,-0.04369525611400604,-0.03728129714727402,-0.005057135131210089,0.0792832225561142,0.07359394431114197,-0.031069418415427208,0.07189170271158218,0.12014896422624588,-0.3077605664730072,-0.1650775969028473,0.12219393998384476,-0.12252283841371536,-0.016963955014944077,0.07219640910625458,-0.14923611283302307,0.012970657087862492,-0.12654688954353333,0.15605947375297546,-0.04069420322775841,-0.02340860106050968,0.03304167836904526,-0.19604896008968353,0.03410927951335907,-0.07714701443910599,-0.0951511338353157,0.030525092035531998,0.018870575353503227,-0.20140939950942993,-0.05329597368836403,-0.01575208455324173,0.18710431456565857,-0.017701445147395134,-0.1331343799829483,0.3001742660999298,0.03400382027029991,0.07305490225553513,0.4372268319129944,0.31204432249069214,0.16020245850086212,-0.4893333911895752,0.0823148563504219,0.12415564805269241,-0.2528740465641022,0.1907973289489746,0.2876523733139038,-0.07999822497367859,-0.05928996577858925,0.20512054860591888,-0.3509197533130646,0.06085967645049095,0.12997058033943176,0.0959136039018631,0.057329531759023666,0.19785785675048828,-0.5862900018692017,0.18252362310886383,0.010905233211815357,0.23043343424797058,-0.004668805748224258,-0.06595159322023392,-0.15203575789928436,0.10713540762662888,0.06538867950439453,0.4987438917160034,-0.16745229065418243,-0.0905088558793068,0.20482568442821503,-0.2045394778251648,-0.057296495884656906,0.03930551931262016,-0.1137734055519104,0.04671645909547806,0.253315269947052,-0.06655512750148773,-0.025314630940556526,-0.13834403455257416,0.10356372594833374,0.20693226158618927,-0.10315250605344772,-0.0306627806276083,-0.09563905745744705,-0.01780744642019272,-0.048616547137498856,0.14431984722614288,0.20392420887947083,0.09853894263505936,0.13141068816184998,0.01040092296898365,0.02731318213045597,-0.14256370067596436,0.2123088538646698,0.008392351679503918,-0.04785337299108505,-0.10006318986415863,-0.18039028346538544,0.019558506086468697,0.15023155510425568,-0.0006891805678606033,0.07995840907096863,-0.14011667668819427,-0.0005907437880523503,0.0584787018597126,0.09089022129774094,-0.15534712374210358,0.2540959417819977,0.04226888343691826,0.15371212363243103,-0.01756032556295395,-0.08051911741495132,-0.21404358744621277,-0.11016915738582611,-0.06034865230321884,-0.024194803088903427,-0.008532495237886906,-0.0005254506249912083,0.04654446989297867,-0.20772911608219147,0.010872279293835163,0.032796334475278854,0.11780908703804016,-0.09075670689344406,-0.1584164947271347,-0.25553882122039795,0.021865475922822952,0.09162686765193939,-0.047816742211580276,0.04387986287474632,-0.027053305879235268,-0.018005460500717163,-0.0442923866212368,-0.0758223608136177,0.3163304626941681,-0.03582887351512909,-0.04432041198015213,-0.04682942479848862,-0.19807298481464386,-0.003411311889067292,0.05271096155047417,-0.206678569316864,-0.020884133875370026,-0.00431101443246007,-0.1863582283258438,0.026390133425593376,0.09908534586429596,0.008367673493921757,-0.07599933445453644,0.027092168107628822,-0.07367608696222305,-0.13854838907718658,-0.20504321157932281,-0.1185382753610611,0.19811341166496277,-0.14967699348926544,0.08116058260202408,0.01658112369477749,-0.1982222944498062,0.006288019474595785,-0.1400846242904663,0.11994611471891403,0.1315990835428238,-0.11200122535228729,0.12064263969659805,-0.012449530884623528,-0.14617806673049927,0.1655266433954239,0.20618936419487,-0.09472455084323883,-0.21928636729717255,-0.09234294295310974,-0.11220049858093262,0.07917521148920059,0.23878957331180573,0.1793966144323349,0.09636484086513519,-0.03776784613728523,-0.08115994930267334,0.2251785546541214,-0.019640184938907623,0.06847910583019257,0.039946217089891434,-0.26494792103767395,-0.20247185230255127,-0.07907003164291382,0.20474329590797424,-0.018057039007544518,-0.2172153890132904,-0.07274729013442993,0.04914423078298569,-0.10094113647937775,-0.008514858782291412,0.10343175381422043,-0.17035429179668427,0.17960885167121887,-0.2366645783185959,0.057086292654275894,-0.05384070798754692,-0.08253990113735199,-0.18036505579948425,0.2262345552444458,0.007808632217347622,0.12921030819416046,0.17439387738704681,0.12215282768011093,0.016573790460824966,-0.011420114897191525,-0.12062115222215652,-0.04431610181927681,-0.29732829332351685,-0.011569265276193619,-0.041879795491695404,-0.180326446890831,0.0645277202129364,0.10696068406105042,0.20398378372192383,-0.05199630558490753,-0.15192513167858124,0.12748722732067108,0.07595153152942657,-0.10031205415725708,0.10466501861810684,-0.04985031485557556,0.011089183390140533,-0.006182500161230564,-0.06273408234119415,0.2666514813899994,-0.18055258691310883,-0.08607299625873566,-0.025770606473088264,-0.34988346695899963,0.08065592497587204,-0.12917084991931915,0.17578677833080292,0.1418321579694748,-0.19444426894187927,0.19563327729701996,0.14770491421222687,-0.26598209142684937,0.26342517137527466,-0.0870678648352623,-0.2458123415708542,0.038029711693525314,0.020359346643090248,-0.1846393197774887,0.00283703557215631,-0.09436728805303574,0.02659876085817814,0.20955750346183777,-0.02668246068060398,0.14416761696338654,-0.17692749202251434,-0.027772000059485435,-0.11971479654312134,0.00943094864487648,-0.0430319681763649,-0.11256209015846252,-0.3454282581806183,0.007096722722053528,0.02046707086265087,-0.06042720004916191,-0.10564548522233963,-0.07245448231697083,0.0839252695441246,-0.10042709112167358,-0.13095757365226746,0.025402642786502838,-0.11733508110046387,0.04899326339364052,-0.024139977991580963,0.08262139558792114,-0.08182518929243088,0.02069108560681343,0.03454189747571945,-0.005309785716235638,0.0785517618060112,-0.14135019481182098,0.003971386700868607,0.20291469991207123,0.04472799599170685,-0.10796579718589783,-0.007380068302154541,0.16784785687923431,-0.039841555058956146,0.06336270272731781,0.08770132064819336,-0.08427482843399048,-0.07192684710025787,0.12900947034358978,-0.011052192188799381,-0.1664469987154007,0.02720746584236622,0.1450406163930893,-0.06817606091499329,-0.12669549882411957,0.12352241575717926,-0.05796554684638977,0.06695128977298737,0.06214728206396103,0.023691359907388687,0.04701494053006172,0.06531059741973877,-0.08781033754348755,-0.021386858075857162,0.03084186092019081,0.006129895336925983,-0.08457357436418533,-0.11207986623048782,-0.3577755391597748,-0.07632484287023544,0.08140269666910172,0.03752459958195686,-0.12029018998146057,0.08983705937862396,-0.03684234246611595,-0.10712935775518417,-0.09455283731222153,0.10920251160860062,0.13932691514492035,-0.03195706754922867,0.014606373384594917,0.04141436517238617,-0.10254468768835068,0.050542306154966354,-0.2321106344461441,-0.11766442656517029,0.08475116640329361,0.12339072674512863,0.028398387134075165,-0.09522951394319534,0.21366479992866516,0.26772019267082214,0.21480122208595276,-0.05409185215830803,0.16529445350170135,-0.2232893407344818,0.19291460514068604,-0.0712508112192154,0.09646881371736526,0.02552114427089691,-0.16014830768108368,-0.0716060996055603,0.10095421224832535,-0.0033039208501577377,0.14964665472507477,-0.007032521069049835,-0.20281781256198883,-0.14161695539951324,0.150241881608963,0.07642952352762222,-0.03825382515788078,0.011256508529186249,-0.040328219532966614,-0.19827452301979065,0.05236956104636192,-0.1314707249403,-0.07214398682117462,-0.07001730054616928,-0.03455786779522896,0.047158382833004,-0.05225435271859169,0.09551484882831573,0.07084842026233673,0.01344515010714531,0.2241985946893692,0.05601542815566063,-0.07357551902532578,0.08302239328622818,0.07077053189277649,-0.027769070118665695,0.17370477318763733,-0.03599463775753975,-0.1369888335466385,-0.35743629932403564,-0.12605854868888855,0.11773994565010071,-0.015915747731924057,-0.13196825981140137,0.0590326152741909,-0.13890714943408966,-0.08780031651258469,0.10285037755966187,-0.054556071758270264,0.1346081793308258,0.11008181422948837,0.05114724487066269,0.06740739196538925,-0.008942997083067894,0.2966178357601166,0.21881812810897827,0.016059091314673424,0.29787278175354004,-0.2810554802417755,0.0332660898566246,0.07188992202281952,-0.14375914633274078,0.023082775995135307,0.0952790230512619,0.0014673975529149175,-0.10988528281450272,0.1314670741558075,0.061000484973192215,0.00473546888679266,0.07660485804080963,0.22448112070560455,-0.10976988077163696,-0.0526139996945858,-0.042580392211675644,0.10648678988218307,0.038651201874017715,0.11034081876277924,-0.007270140573382378,0.15470193326473236,-0.10502989590167999,0.15514913201332092,-0.09103953838348389,-0.07341716438531876,0.05702108144760132,-0.061989981681108475,0.011452022939920425,0.170256569981575,-0.11565052717924118,0.02837626077234745,0.1291682869195938,0.04749387130141258,0.10459858179092407,0.07447690516710281,0.1334282010793686,0.08095725625753403,-0.1316971331834793,0.04468896612524986,0.02227000892162323,0.01887528784573078,0.036141421645879745,-0.12441308796405792,0.06263570487499237,0.04871610552072525,0.152133047580719,-0.06269720196723938,0.19819679856300354,0.003671894781291485,0.10542961210012436,-0.15906792879104614,-0.1433035284280777,0.10745858401060104,0.1400936394929886,0.19592320919036865,-0.07267536222934723,-0.054377466440200806,0.01849168725311756,-0.07520353049039841,-0.18214985728263855,-0.13630320131778717,-0.19119472801685333,-0.14216521382331848,0.03806258738040924,-0.20516370236873627,0.07212304323911667,0.27347373962402344,-0.11336128413677216,0.025459660217165947,0.13263854384422302,-0.043821461498737335,-0.043433576822280884,-0.14465546607971191,0.09757564961910248,-0.1295606940984726,-0.043938785791397095,0.10090470314025879,-0.0782523974776268,-0.19701038300991058,0.16759414970874786,0.15071798861026764,0.1832481324672699,-0.04266178235411644,0.013067749328911304,0.04441453516483307,-0.26116234064102173,0.22032839059829712,0.256093293428421,-0.12615321576595306,0.04512424021959305,0.07480918616056442,0.0098580876365304,0.05310986563563347,0.37457361817359924,0.16793504357337952,0.4040791094303131,0.01419327687472105,-0.230096235871315,0.030941281467676163,-0.08602341264486313,0.15461640059947968,-0.025157606229186058,0.05525274947285652,-0.08744495362043381,-0.10398400574922562,0.27327656745910645,0.06482063978910446,0.11858197301626205,-0.028178885579109192,-0.024206439033150673,-0.1013420969247818,0.0904868021607399,-0.15466579794883728,0.06786894053220749,0.056090228259563446,0.053081363439559937,0.10250230133533478,0.047061674296855927,0.05612485483288765,0.09547550231218338,0.09400191158056259,0.019504645839333534,0.039495836943387985,0.09478729963302612,0.12476830184459686,-0.1453811526298523,-0.04776986315846443,-0.029630620032548904,-0.08774472773075104,-0.008700311183929443,-0.2515307366847992,-0.05601240321993828,-0.15336403250694275,-0.22178080677986145,-0.05515376850962639,-0.11062995344400406,-0.18261243402957916,-0.1945406198501587,0.07643760740756989,0.08422915637493134,0.2346516102552414,0.09439957141876221,-0.2498515099287033,-0.09593359380960464,-0.018483543768525124,0.06627296656370163,0.02001364156603813,-0.08444525301456451,0.14971023797988892,0.056717805564403534,0.06231699511408806,-0.14377333223819733,0.1867876648902893,-0.11467625945806503,0.009959186427295208,0.10213984549045563,0.1957453340291977,0.1963735967874527,0.12143228203058243,0.00908262562006712,0.021408673375844955,-0.036078646779060364,-0.11954488605260849,0.10373438149690628,0.12209515273571014,0.14494238793849945,-0.005540008191019297,-0.041205089539289474,0.0031011332757771015,0.07164422422647476,0.01861337386071682,0.06929773092269897,0.05365659296512604,-0.07483930885791779,-0.4467225968837738,0.22176502645015717,0.27172747254371643,-0.394328236579895,0.10532893985509872,-0.6386376023292542,-0.27427220344543457,-0.3238062560558319,0.7991564273834229,-0.8580163717269897,-0.5784181952476501,-1.0825512409210205,0.24300622940063477,-0.8049236536026001,0.16359743475914001,-0.7406724095344543,-0.0632978081703186,-0.11033178865909576,-0.10113345831632614,0.26680827140808105,0.20385681092739105,0.08486820012331009,-0.0797824040055275,-0.005017513409256935,-0.11759644746780396,0.061715561896562576,0.14810386300086975,0.23872321844100952,-0.024061033502221107,0.18233585357666016,-0.04950828477740288,0.16966597735881805,0.04159943759441376,-0.021504394710063934,0.008077895268797874,0.04662278667092323,-0.27500075101852417,0.4009808301925659,-0.05267174541950226,-0.11911435425281525,0.07222838699817657,-0.19687716662883759,0.17995674908161163,0.23285521566867828,-0.09147325158119202,0.004684058483690023,-0.041002437472343445,0.17706236243247986,-0.14291229844093323,0.1008390560746193,-0.17070752382278442,0.1782047003507614,0.1752430498600006,0.17170536518096924,0.17877934873104095,-0.04855303466320038,-0.04762740060687065,0.19397370517253876,-0.2741338908672333,-0.20941029489040375,0.10409604012966156,0.20426900684833527,0.36266517639160156,0.05705014243721962,-0.009521096013486385,0.04135496914386749,-0.1734023094177246,-0.2240608036518097,-0.12351527065038681,-0.03934583067893982,0.16088557243347168,-0.06699253618717194,-0.02660362981259823,0.26550552248954773,0.0182038526982069,0.20414438843727112,0.3074083626270294,-0.13375642895698547,0.18068623542785645,0.0041257645934820175,0.259477436542511,0.03138316422700882,-0.15442627668380737,-0.20899580419063568,0.24419857561588287,-0.20835447311401367,-0.049219563603401184,0.18963411450386047,0.11294834315776825,0.028042921796441078,-0.06727719306945801,0.26578277349472046,0.1519298553466797,0.057985831052064896,-0.006459853146225214,-0.23777684569358826,-0.13597843050956726,-0.13093362748622894,-0.18652485311031342,-0.13342583179473877,0.11509887874126434,-0.38416948914527893,0.10957049578428268,-0.04291042685508728,0.20893222093582153,0.22333495318889618,-0.03494061529636383,-0.10683617740869522,-0.09319668263196945,-0.16522175073623657,0.13670119643211365,0.05886277183890343,0.10753434151411057,-0.11484566330909729,0.13282069563865662,-0.3033272624015808,0.22956562042236328,0.185553640127182,0.032630451023578644,-0.11245983839035034,0.1609511822462082,0.40803590416908264,-0.3885898292064667,0.03408201411366463,0.024284766986966133,0.08264394849538803,0.153132364153862,0.3161577880382538,0.1260998249053955,0.13257651031017303,-0.09117124229669571,0.03681723773479462,0.17250949144363403,-0.08931874483823776,0.007497148122638464,0.0832715630531311,-0.03088097646832466,0.12176871299743652,-0.23850464820861816,0.04055933654308319,-0.15081225335597992,0.12542352080345154,0.19627609848976135,0.14757004380226135,-0.1637963056564331,0.12779600918293,-0.023834247142076492,0.0017357581527903676,-0.2976926565170288,-0.31510165333747864,0.00858538132160902,-0.21886177361011505,0.20477986335754395,-0.03756675869226456,0.16224107146263123,-0.1109391525387764,-0.07960014790296555,0.06168154254555702,-0.13900554180145264,0.1593800187110901,-0.09767817705869675,0.17709828913211823,-0.21434332430362701,0.011341560631990433,0.11826051026582718,-0.16027319431304932,0.3548473119735718,-0.04635586589574814,0.01777254231274128,0.09685071557760239,0.1895913928747177,0.31991735100746155,0.20574131608009338,0.24892258644104004,0.29088878631591797,-0.09714873135089874,-0.01415913924574852,-0.19186337292194366,0.055490002036094666,0.25632455945014954,-0.001085641561076045,-0.2215191125869751,-0.08418814092874527,0.056295931339263916,0.2394501119852066,0.22048796713352203,-0.1019337847828865,0.13618095219135284,-0.12126468122005463,0.1591162234544754,-0.01089782640337944,0.11181901395320892,0.09953891485929489,0.2930815517902374,-0.0971398875117302,-0.21245592832565308,-0.1413864940404892,-0.12251101434230804,0.2673889994621277,0.2439766526222229,-0.22634980082511902,0.30205947160720825,0.23536698520183563,-0.016609393060207367,-0.0685921460390091,-0.005347641184926033,0.21965406835079193,0.0016122485976666212,-0.22705981135368347,-0.07467707991600037,0.13375599682331085,0.321422278881073,-0.07109282165765762,0.02667366899549961,-0.07351001352071762,0.03477965667843819,-0.15458936989307404,-0.030985064804553986,-0.1588152050971985,-0.21289223432540894,0.13636095821857452,-0.34327584505081177,0.04767840728163719,-0.10869669169187546,0.12881174683570862,0.03609541803598404,0.018514934927225113,0.101633720099926,-0.28943943977355957,0.045849185436964035,0.13272053003311157,0.006654204800724983,0.15763111412525177,0.10115751624107361,0.044535744935274124,0.025856517255306244,0.12793377041816711,0.3068917691707611,0.2585349380970001,-0.10784091800451279,0.03755300119519234,0.26876288652420044,0.04408182203769684,-0.0048889052122831345,-0.2033694088459015,-0.2940438687801361,-0.018796080723404884,0.03324376046657562,-0.041408948600292206,-0.025268331170082092,-0.07821588218212128,-0.04339534044265747,0.02916700206696987,0.02399149350821972,-0.2128831297159195,0.07237915694713593,0.30758199095726013,-0.08924364298582077,-0.18322914838790894,-0.019223002716898918,-0.08763907104730606,0.19023984670639038,-0.18816064298152924,0.17458213865756989,0.07167556881904602,-0.013955759815871716,0.23420469462871552,0.23367264866828918,-0.142123743891716,0.1579751819372177,-0.24846328794956207,-0.3032703995704651,-0.04849780350923538,-0.015070660039782524,-0.017274219542741776,-0.0954054594039917,-0.128999263048172,-0.010011405684053898,0.015537676401436329,0.1698692888021469,0.037559714168310165,0.10395736992359161,0.04912271723151207,-0.13560938835144043,0.07159268110990524,-0.1329316794872284,-0.1126914694905281,-0.05496494099497795,0.1956833451986313,0.03859188035130501,-0.1178755983710289,0.03590400144457817,-0.20125962793827057,-0.1692017763853073,0.1460658311843872,-0.040613409131765366,-0.0177244171500206,0.16719236969947815,-0.17398406565189362,-0.034950677305459976,0.14824409782886505,-0.04967551305890083,-0.20486263930797577,0.00021344648848753422,0.22807112336158752,-0.03333205729722977,-0.06348798424005508,-0.18018507957458496,-0.019452644512057304,-0.10558333247900009,0.13713784515857697,-0.17038165032863617,-0.01919812150299549,0.23775437474250793,0.2512560188770294,-0.04139555245637894,0.026148751378059387,-0.003831658512353897,0.010777673684060574,0.12839925289154053,-0.020013241097331047,0.01714807190001011,-0.03022448904812336,-0.006811991799622774,0.0918094739317894,0.0504789799451828,0.22743594646453857,-0.038696736097335815,0.14305803179740906,-0.030417263507843018,0.1899775266647339,0.06976421177387238,-0.027338122949004173,0.022534949705004692,-0.2751424312591553,-0.04361217841506004,0.024913931265473366,-0.26045703887939453,-0.022813741117715836,0.0653158575296402,0.31000643968582153,-0.29309338331222534,0.22414134442806244,-0.373573362827301,-0.02084515243768692,0.07975147664546967,-0.24782580137252808,-0.17939072847366333,0.2011847347021103,-0.4051741063594818,-0.036793097853660583,-0.1434606909751892,0.0012120628962293267,-0.04577683284878731,0.09081617742776871,-0.5024369359016418,0.19400013983249664,-0.17898720502853394,-0.06544511020183563,0.0597095713019371,0.04524301365017891,0.2108876258134842,-0.13016077876091003,0.09097812324762344,0.09315025061368942,0.10048429667949677,0.08439815044403076,0.05627629533410072,-0.16734658181667328,0.013196205720305443,-0.4864116311073303,-0.20013529062271118,-0.06314738839864731,0.1669999212026596,-0.013162035495042801,0.05843306705355644,0.0005772894364781678,-0.20325961709022522,0.08586837351322174,0.22573600709438324,-0.001406363444402814,0.1659049540758133,0.34585142135620117,0.3756714463233948,0.1822984218597412,-0.08168228715658188,-0.08092387020587921,0.16243712604045868,0.0964314192533493,-0.21806591749191284,0.2928554117679596,-0.07357200980186462,0.22428752481937408,0.06183499097824097,0.08548381924629211,0.09968840330839157,0.15267063677310944,-0.209004744887352,0.05241413787007332,0.12091671675443649,0.11980056017637253,0.13399609923362732,-0.1187843605875969,-0.055475492030382156,0.04313604161143303,-0.09924425184726715,-0.026587359607219696,0.06797963380813599,0.011247173883020878,0.17860561609268188,0.05569605901837349,0.02724578231573105,0.07508336007595062,-0.14687715470790863,-0.2836867868900299,0.3162212669849396,-0.07387986034154892,-0.2049778401851654,-0.07273579388856888,0.04381798207759857,0.03684018924832344,0.18815402686595917,0.2022671103477478,-0.1590145081281662,0.19745905697345734,0.17605949938297272,0.21747763454914093,0.12378088384866714,-0.2808801233768463,-0.11746349185705185,0.09273263067007065,0.159357950091362,-0.25182074308395386,-0.2745785415172577,0.09083173424005508,0.08601638674736023,0.007324221543967724,-0.01845579221844673,-0.11510854959487915,0.02431776188313961,0.067055344581604,0.1975332349538803,0.11457209289073944,-0.1471063196659088,-0.039997510612010956,0.10130263864994049,-0.015822717919945717,-0.08643490821123123,-0.12156704068183899,0.07877662032842636,-0.05409315973520279,0.058912958949804306,0.03593311831355095,-0.14746935665607452,-0.038769885897636414,0.14111106097698212,0.1890014261007309,0.11707459390163422,-0.08733643591403961,-0.18362195789813995,-0.20883946120738983,-0.15808241069316864,-0.14163453876972198,-0.08444046229124069,-0.12361752241849899,-0.012479247525334358,0.16415581107139587,-0.21028809249401093,0.0776582732796669,-0.15533316135406494,-0.08083367347717285,0.015151407569646835,-0.2222628891468048,0.1874750405550003,-0.07797794789075851,0.08501990884542465,-0.030865665525197983,-0.08562669157981873,0.13398785889148712,0.33111244440078735,0.17147500813007355,-0.018545834347605705,0.08252004534006119,-0.11376214772462845,-0.05200383812189102,-0.04339684173464775,0.42817196249961853,0.17281728982925415,0.057261548936367035,0.07942502945661545,0.1110336109995842,-0.13938869535923004,-0.07327570021152496,0.02078266255557537,0.004087124951183796,0.009967261925339699,0.09055890142917633,-0.028977232053875923,-0.1915098875761032,-0.31277894973754883,0.09949429333209991,-0.06997061520814896,-0.04224183037877083,0.15412813425064087,-0.007990838028490543,-0.24874696135520935,-0.03054243139922619,0.073822982609272,0.012373481877148151,0.18734407424926758,0.1366843581199646,-0.04086150601506233,0.028292126953601837,0.020912829786539078,-0.14688484370708466,-0.17819228768348694,0.05521577596664429,0.07725731283426285,-0.08597540855407715,0.2113669365644455,-0.07519491016864777,0.21206726133823395,-0.13015732169151306,-0.04804190993309021,0.35773375630378723,-0.25332820415496826,-0.24147501587867737,-0.10331842303276062,0.1261322945356369,0.1834326833486557,-0.16449669003486633,-0.02795841172337532,-0.13555411994457245,-0.10756971687078476,-0.18740683794021606,-0.028773337602615356,-0.029825527220964432,-0.014605141244828701,-0.16514979302883148,0.04985405132174492,-0.04108763858675957,-0.0022485919762402773,0.04091237112879753,-0.05410117655992508,-0.27240830659866333,0.21004585921764374,-0.17748652398586273,-0.19026044011116028,0.06348290294408798,-0.18920956552028656,-0.058999110013246536,0.14089486002922058,0.15382619202136993,-0.1123613491654396,-0.09489500522613525,-0.2593233585357666,-0.01598942279815674,0.03072684071958065,0.2797257602214813,0.17403019964694977,0.24270880222320557,0.159053772687912,-0.030054356902837753,-0.2429184764623642,0.39006856083869934,-0.17045730352401733,-0.20701274275779724,0.08028384298086166,0.21258315443992615,0.07939503341913223,-0.13559414446353912,0.32609739899635315,0.1254841834306717,-0.012585817836225033,-0.02428263984620571,0.0792844146490097,-0.21756312251091003,-0.21046437323093414,-0.09065353870391846,-0.19584636390209198,-0.2802852988243103,-0.13193407654762268,-0.05680524557828903,-0.0665154978632927,0.02119528502225876,-0.07904322445392609,0.09103582799434662,0.04423348233103752,0.05947614461183548,-0.0740775391459465,-0.02184106968343258,0.027280153706669807,0.5088859796524048,-0.00962197408080101,-0.24314378201961517,0.6330790519714355,-0.04313360154628754,0.18472492694854736,0.21977631747722626,-0.08282844722270966,-0.12871204316616058,0.17617718875408173,0.2145036906003952,-0.12563318014144897,0.3837900161743164,-0.05077611282467842,-0.21376372873783112,0.3483268916606903,-0.02577984891831875,-0.10805113613605499,0.10123033821582794,-0.040330663323402405,-0.05328778922557831,-0.16651654243469238,0.1718141883611679,-0.21620048582553864,0.08475397527217865,0.060706596821546555,-0.05682429298758507,-0.04149845615029335,-0.02814575470983982,0.0102608110755682,-0.32091525197029114,-0.02443014085292816,-0.05286460369825363,0.15044865012168884,-0.006970603484660387,0.3034699857234955,0.0027781538665294647,0.026786668226122856,-0.00782791804522276,0.19465841352939606,0.08081621676683426,0.043273139744997025,-0.050896864384412766,-0.035559508949518204,-0.13690520823001862,0.033409617841243744,-0.04685842618346214,0.1121719628572464,0.012365351431071758,-0.030822688713669777,0.21664801239967346,-0.026457378640770912,-0.05068907141685486,-0.32412007451057434,0.04555781930685043,0.031058419495821,0.16479265689849854,0.048962485045194626,-0.21553587913513184,-0.3158060908317566,0.01834139972925186,-0.21682098507881165,0.2681487202644348,-0.24339452385902405,-0.10223552584648132,0.12038274109363556,-0.03194418549537659,-0.4063323140144348,0.22246137261390686,0.06644045561552048,0.19584712386131287,-0.09218816459178925,-0.16565223038196564,0.22462724149227142,-0.1327991932630539,-0.05306924507021904,-0.23809440433979034,-0.1342066526412964,-0.12172471731901169,0.10137107968330383,-0.15848900377750397,-0.16628921031951904,0.14910611510276794,-0.056283000856637955,-0.08252526074647903,0.18239334225654602,-0.05772015079855919,0.11248114705085754,0.031016750261187553,-0.02268214337527752,0.16509172320365906,0.10376540571451187,-0.14871250092983246,0.03251399099826813,0.009397119283676147,0.11841890215873718,-0.10591477155685425,-0.33407941460609436,0.03341394662857056,0.1859101802110672,0.10884421318769455,0.06357549875974655,-0.16069015860557556,-0.013756782747805119,0.09113775193691254,-0.17896932363510132,-0.02551707811653614,-0.021380895748734474,-0.01135058980435133,0.16950353980064392,0.09923601150512695,-0.1407676488161087,-0.09349194169044495,-0.03981442376971245,0.13566376268863678,0.16383767127990723,-0.11234269291162491,0.10821119695901871,-0.19170309603214264,0.028995361179113388,-0.08980101346969604,0.25739675760269165,0.16965776681900024,-0.22809316217899323,0.0429939404129982,-0.06287427246570587,0.01322232373058796,0.00105215550865978,-0.19728705286979675,-0.08190640062093735,-0.0898609533905983,0.0749005526304245,0.14922493696212769,0.03331780061125755,0.005424990318715572,-0.06926820427179337,-0.05816652998328209,-0.10613343119621277,-0.10299352556467056,-0.18682770431041718,-0.04882650822401047,-0.08515521138906479,0.09094671159982681,-0.05300223454833031,-0.03261649236083031,-0.04660852625966072,-0.14394117891788483,0.009668070822954178,0.18238171935081482,0.044965505599975586,-0.1053052470088005,-0.0524524450302124,-0.060010336339473724,-0.2211955338716507,0.04841216653585434,0.1189592257142067,-0.116316057741642,0.1602165251970291,-0.04388625547289848,-0.01391488965600729,-0.19238929450511932,-0.1653570830821991,0.14747123420238495,0.02937941439449787,0.02820677123963833,0.010313833132386208,-0.265360951423645,-0.0645935982465744,-0.18617962300777435,-0.11626188457012177,-0.08461348712444305,-0.17978200316429138,-0.03137945011258125,-0.05114303529262543,-0.09015518426895142,-0.32576194405555725,-0.026508230715990067,-0.12410511821508408,-0.22050203382968903,0.002172752982005477,0.05951111018657684,0.32882624864578247,-0.17702093720436096,-0.15943582355976105,0.16168110072612762,-0.09468293935060501,-0.0044332691468298435,0.24073249101638794,-0.007484730798751116,-0.19684991240501404,0.1499648094177246,-0.05412495508790016,0.1809324324131012,0.01243068277835846,0.2635449767112732,0.2091040462255478,-0.14833159744739532,0.16280077397823334,0.16899339854717255,-0.12225378304719925,0.051804617047309875,0.14782437682151794,0.17908191680908203,0.06475049257278442,0.11288238316774368,-0.1661367416381836,0.05043293535709381,0.030532659962773323,0.2537061870098114,0.167385071516037,-0.13789115846157074,0.07224588841199875,-0.02372458577156067,-0.024612873792648315,0.09157154709100723,0.07481639087200165,-0.25142332911491394,-0.017941314727067947,-0.028450729325413704,0.162663534283638,0.10179728269577026,-0.017244655638933182,-0.14636488258838654,0.07904014736413956,0.06596086919307709,-0.024706512689590454,0.3173423111438751,-0.1437327116727829,-0.10020343214273453,0.11736356467008591,0.018726767972111702,-0.15921127796173096,0.15444228053092957,-0.2588372230529785,0.08598793298006058,0.11130044609308243,0.025500213727355003,-0.10103607922792435,-0.0038846605457365513,-0.083731509745121,-0.2821815311908722,-0.13667576014995575,0.025956176221370697,-0.040179044008255005,0.05283978208899498,0.27679213881492615,-0.15491901338100433,-0.19857892394065857,-0.12885308265686035,0.14544905722141266,-0.09206367284059525,-0.03954830393195152,-0.042847491800785065,-0.23198236525058746,-0.07344227284193039,-0.05839579179883003,0.1342151015996933,-0.02718701958656311,-0.062106601893901825,0.07372888177633286,-0.058412421494722366,0.04099172353744507,-0.007616344839334488,-0.12369894981384277,-0.06408187001943588,0.3065558671951294,-0.08155268430709839,0.00014882907271385193,0.014977402985095978,0.028469407930970192,-0.21093237400054932,-0.2791256010532379,-0.13084909319877625,-0.047337714582681656,0.18730399012565613,0.17909236252307892,0.06714186817407608,-0.14343756437301636,0.11686570942401886,-0.09967556595802307,-0.3154619336128235,0.14284071326255798,0.1714680939912796,-0.0509304404258728,0.1537235677242279,0.22969026863574982,0.011602903716266155,0.011370041407644749,-0.04227174073457718,0.1541883796453476,0.022209500893950462,-0.035426415503025055,-0.07794981449842453,0.09084972739219666,-0.09428303688764572,0.04218212142586708,0.0351041816174984,0.005323408171534538,0.14754152297973633,0.08737538754940033,0.08269045501947403,0.11382784694433212,-0.1875854730606079,0.28658539056777954,-0.026262441650032997,0.17202238738536835,0.33415862917900085,0.21077407896518707,-0.3087399899959564,-0.26728665828704834,-0.47511982917785645,0.05000083148479462,0.224580779671669,-0.15857547521591187,-0.04243350401520729,0.3823096454143524,-0.1300285905599594,0.17639629542827606,0.0055694421753287315,0.14584849774837494,-0.058275673538446426,-0.11928028613328934,-0.21728810667991638,0.06540048867464066,-0.14495639503002167,0.08856840431690216,0.0016182935796678066,-0.11988285183906555,-0.06766463071107864,-0.23375023901462555,-0.0870354026556015,0.21924199163913727,-0.21566887199878693,0.11524435132741928,0.09135143458843231,-0.020270846784114838,0.16231831908226013,0.041577696800231934,-0.026980798691511154,-0.1626874953508377,0.15830981731414795,0.1081874743103981,0.10038550198078156,-0.15397603809833527,0.002465178957208991,0.03905403986573219,0.16394054889678955,0.09167240560054779,0.04659447446465492,-0.03509953245520592,-0.10537071526050568,-0.02567337080836296,0.04028363525867462,-0.25406771898269653,0.11384205520153046,-0.06678900867700577,-0.14373810589313507,0.08161734789609909,0.1636381447315216,-0.09960489720106125,0.13832850754261017,-0.05324177071452141,-0.017134221270680428,0.020787391811609268,-0.10635232925415039,-0.42213451862335205,-0.25835350155830383,-0.25410667061805725,0.11340729147195816,0.11818809062242508,0.08267433941364288,0.011738106608390808,0.05897694081068039,0.09372241050004959,0.06294956058263779,-0.06702856719493866,0.3091205656528473,-0.08630683273077011,-0.019587429240345955,0.11949630826711655,-0.022848017513751984,-0.00213548238389194,-0.22459647059440613,-0.0569549985229969,0.0374755896627903,-0.14074203372001648,-0.0026764406356960535,0.0987035408616066,-0.3423243761062622,-0.0030241806525737047,-0.08169616013765335,-0.14138637483119965,0.05097878351807594,0.06519697606563568,0.18607676029205322,0.14112064242362976,0.07430341094732285,-0.06847353279590607,0.015755675733089447,0.18285305798053741,0.11623847484588623,-0.13722895085811615,0.049477942287921906,-0.17189189791679382,-0.09229517728090286,-0.047839004546403885,0.384831041097641,-0.17170381546020508,-0.020656779408454895,0.018425386399030685,-0.04382535442709923,0.18276891112327576,-0.13168711960315704,0.03670276701450348,0.011251037009060383,0.006361469626426697,0.014495467767119408,0.10383116453886032,0.17918576300144196,0.12361250817775726,-0.01623239926993847,0.11352831870317459,-0.24044667184352875,0.308907687664032,-0.07455804944038391,-0.1538103073835373,0.012642871588468552,-0.020952407270669937,-0.0377405509352684,0.14015527069568634,0.056601736694574356,0.19618111848831177,0.02426144666969776,-0.08359946310520172,0.05953243374824524,0.34190475940704346,0.0724179670214653,0.004307488910853863,0.13600504398345947,0.15623202919960022,0.01580095663666725,-0.1994228959083557,-0.11010377109050751,-0.21444636583328247,-0.02302868478000164,0.02595711313188076,0.08799730241298676,-0.20463374257087708,-0.14470309019088745,-0.07331061363220215,0.08888301253318787,0.10751175880432129,0.06881147623062134,0.0745924562215805,-0.12593144178390503,-0.1729053556919098,0.014073796570301056,-0.3299119174480438,-0.08642058074474335,-0.247824028134346,-0.09406351298093796,0.08740432560443878,-0.1749121993780136,0.06724509596824646,0.08840853720903397,-0.01741986908018589,0.03420005738735199,0.08578845858573914,0.05221835896372795,0.014558435417711735,-0.038299310952425,0.06425274908542633,0.12334295362234116,0.068479523062706,-0.010711303912103176,0.028284544125199318,-0.1301758736371994,0.0024469036143273115,-0.008129389025270939,0.011964651755988598,-0.3070394694805145,-0.4014054834842682,0.8280936479568481,0.37087348103523254,-0.44604671001434326,0.03953828662633896,-0.20505402982234955,-0.023768436163663864,0.47787928581237793,-0.6958985924720764,0.763242244720459,0.659153938293457,0.11062274128198624,-0.41351330280303955,0.12932442128658295,-0.5005608797073364,0.2450110912322998,0.10396070033311844,-0.007085112389177084,-0.27816569805145264,0.20772577822208405,0.33653151988983154,0.12627743184566498,0.06306998431682587,-0.0025673035997897387,0.034244880080223083,0.13318368792533875,-0.02631998434662819,-0.34787872433662415,-0.026072699576616287,-0.06139012426137924,-0.02350686490535736,0.3473198413848877,0.2764401137828827,-0.0013177265645936131,0.153786763548851,0.22376501560211182,-0.08784791082143784,0.14247658848762512,-0.21575210988521576,-0.30146825313568115,0.13978318870067596,-0.05867176130414009,-0.1467445194721222,0.13372845947742462,0.38936805725097656,-0.1907927542924881,-0.016548726707696915,-0.008149083703756332,-0.3075052797794342,-0.05112230032682419,-0.16681021451950073,0.12015021592378616,0.0556907020509243,-0.15398134291172028,-0.24856632947921753,-0.15676642954349518,0.04304982349276543,-0.28163909912109375,0.019184837117791176,0.25252145528793335,-0.3701334595680237,-0.059720229357481,0.11911112070083618,0.09281294792890549,-0.19561126828193665,-0.01225022878497839,0.09403599798679352,-0.13443611562252045,0.030277596786618233,-0.17605280876159668,0.23803389072418213,0.10837060213088989,0.0018930818187072873,0.031472355127334595,0.03760553151369095,0.19100572168827057,-0.023131372407078743,0.14334385097026825,-0.08384813368320465,0.34505847096443176,0.12146367132663727,0.2799662947654724,-0.0509592741727829,0.22593803703784943,-0.18035829067230225,0.3182275891304016,-0.035790976136922836,0.1675993800163269,-0.018035463988780975,-0.016182685270905495,0.1568593531847,-0.12186852842569351,-0.28506144881248474,0.31761986017227173,-0.29618531465530396,-0.03798869997262955,0.22362425923347473,-0.11652372777462006,-0.2582116723060608,-0.25263333320617676,-0.3015519678592682,0.1426258087158203,0.054756954312324524,-0.10219110548496246,-0.2716931700706482,-0.24515287578105927,0.3538237512111664,-0.03189016506075859,0.023960629478096962,0.6921917796134949,0.28156617283821106,-0.05206701159477234,0.0461399219930172,-0.24009478092193604,0.13751289248466492,0.03609862178564072,-0.017296630889177322,0.19664914906024933,-0.148279070854187,-0.2633923590183258,-0.0146495271474123,0.1729249507188797,-0.22751183807849884,0.38336896896362305,-0.32412204146385193,0.3291834890842438,0.08838631957769394,0.1534416675567627,0.1376059204339981,-0.13930188119411469,-0.1407846063375473,0.050940368324518204,-0.08772367984056473,0.02148490585386753,-0.07467324286699295,0.10596393048763275,0.14590951800346375,0.10264118015766144,0.4377446174621582,0.06251507252454758,0.0914134532213211,0.32838860154151917,-0.015378803014755249,-0.398952454328537,-0.15218372642993927,-0.034829381853342056,0.3175503611564636,0.09324905276298523,-0.07023467123508453,-0.36495447158813477,0.14942385256290436,0.057164549827575684,0.11387596279382706,-0.1542081981897354,0.09665997326374054,-0.2971598505973816,-0.009546942077577114,0.007852752692997456,0.0843505710363388,0.18862470984458923,-0.0858214721083641,-0.08599397540092468,0.12754380702972412,0.039718110114336014,0.10370253771543503,-0.14516128599643707,-0.14229923486709595,0.02057187259197235,0.07694952934980392,0.1032739207148552,-0.12775224447250366,-0.06252652406692505,-0.040056318044662476,0.15589743852615356,0.08696740120649338,0.30388063192367554,0.09528880566358566,-0.1957262009382248,-0.12937377393245697,0.25751128792762756,-0.27331653237342834,0.04714260250329971,0.04601961001753807,-0.0077311075292527676,-0.027324743568897247,-0.32080426812171936,-0.11909189075231552,-0.04376703128218651,-0.38417667150497437,0.2611280083656311,0.21105901896953583,0.1036008968949318,0.3187072277069092,-0.1894443929195404,0.023722991347312927,-0.1477642059326172,0.38217827677726746,0.44986194372177124,0.08607097715139389,-0.20018799602985382,-0.18915171921253204,-0.15602612495422363,0.17018279433250427,-0.12683729827404022,-0.3129316568374634,-0.01688346639275551,0.06927189230918884,-0.4401560425758362,-0.34156322479248047,-0.08451615273952484,-0.06504388153553009,0.19284404814243317,0.20006179809570312,-0.28225579857826233,-0.24932079017162323,0.06405134499073029,-0.046224407851696014,-0.23166854679584503,0.02748984657227993,0.023802021518349648,0.06886206567287445,0.07117496430873871,-0.07231073081493378,-0.2551047205924988,0.15040621161460876,-0.10812094807624817,0.07135787606239319,-0.09245295822620392,0.049216657876968384,0.0410061851143837,0.005197055637836456,0.04749758169054985,-0.014651302248239517,0.010451259091496468,-0.35462361574172974,0.187300443649292,0.06023770198225975,-0.1316894143819809,0.09581606835126877,0.0780898779630661,0.42640581727027893,-0.08259700983762741,0.051063794642686844,-0.2192152440547943,-0.3539721667766571,0.11012579500675201,-0.09038707613945007,0.36203816533088684,0.09645857661962509,-0.10452237725257874,0.25920742750167847,0.01688188500702381,0.2282271385192871,-0.11008547991514206,-0.04514108970761299,-0.25575128197669983,-0.28240811824798584,-0.07850544154644012,-0.32804566621780396,-0.027309980243444443,-0.04690854623913765,-0.15199729800224304,-0.25800299644470215,-0.08061801642179489,0.3113650977611542,0.17067430913448334,0.2206851840019226,-0.23226982355117798,0.16313792765140533,-0.08402632176876068,-0.09795740246772766,0.03360503166913986,0.02155204489827156,0.08210701495409012,0.05106178671121597,-0.07313335686922073,0.1062312200665474,0.06562381982803345,-0.018962815403938293,-0.17365096509456635,-0.11610037833452225,0.011410227045416832,0.04227594658732414,0.1457512229681015,0.04225827381014824,-0.03433810919523239,0.03043084219098091,0.2803115248680115,-0.011163409799337387,0.1788819283246994,-0.19348369538784027,0.11415708810091019,0.1855669468641281,0.034826286137104034,0.05840113386511803,0.048083435744047165,-0.15925316512584686,0.06200298294425011,0.24820274114608765,-0.09456662088632584,-0.13638965785503387,-0.2559206783771515,0.026688342913985252,0.13887056708335876,-0.003000629832968116,-0.008332367055118084,0.014857005327939987,-0.08302897959947586,-0.09101986885070801,0.0990728810429573,-0.016305958852171898,-0.08274393528699875,-0.29502788186073303,0.13865874707698822,0.06856698542833328,0.2070743441581726,0.010375616140663624,0.02136192098259926,0.013014360330998898,0.3564845323562622,0.18196481466293335,-0.007744184695184231,-0.14987410604953766,-0.22081589698791504,-0.10807175189256668,0.11446434259414673,0.17742998898029327,-0.09273649752140045,-0.16197775304317474,-0.0726964995265007,-0.10572396218776703,-0.24057874083518982,0.10527294129133224,-0.14569899439811707,-0.09753703325986862,0.13367588818073273,0.14414864778518677,0.0976351946592331,0.14161382615566254,0.09277047216892242,0.045077063143253326,0.13629139959812164,-0.21647734940052032,0.04361927881836891,0.06850366294384003,0.05616586655378342,0.13893644511699677,-0.02930874191224575,0.16704457998275757,0.055411048233509064,-0.19408299028873444,-0.0709051713347435,-0.2607491612434387,-0.21090582013130188,0.04918641969561577,0.011202138848602772,-0.17265631258487701,-0.03528076037764549,-0.06508368253707886,0.055557433515787125,-0.010452447459101677,-0.1385083943605423,-0.019582943990826607,0.07778475433588028,0.22660589218139648,0.141776442527771,-0.2100856602191925,-0.19687791168689728,0.2660542130470276,0.008028269745409489,0.007382536306977272,-0.0764421597123146,-0.12977033853530884,-0.07255522161722183,-0.002762810792773962,0.027491511777043343,-0.2893744707107544,-0.012829800136387348,0.272295206785202,-0.035186272114515305,-0.200516015291214,0.02356851100921631,-0.09586114436388016,-0.1847655028104782,-0.20936639606952667,0.04956742003560066,-0.0038690108340233564,-0.130886048078537,-0.1362040638923645,-0.0060510411858558655,-0.05445341765880585,0.22466439008712769,-0.16583941876888275,0.10422768443822861,0.020084761083126068,0.12340366840362549,-0.08584453165531158,0.13272017240524292,0.001258077914826572,-0.043262820690870285,-0.1678169071674347,0.03871306777000427,0.039937350898981094,-0.14380134642124176,0.1197158470749855,-0.06494355201721191,0.0052231308072805405,0.05817107483744621,0.19763793051242828,0.03355882316827774,0.15028095245361328,-0.022809982299804688,-0.05323858559131622,0.03505682572722435,0.033128656446933746,0.12296643108129501,-0.18590375781059265,-0.08797119557857513,0.16015596687793732,-0.02777106687426567,0.09960788488388062,0.02348664589226246,-0.21491946280002594,-0.01425961870700121,0.10836613178253174,-0.005534851923584938,-0.2651951313018799,-0.07002835720777512,-0.0682874396443367,-0.0038374080322682858,0.15264837443828583,-0.21442417800426483,0.1191914975643158,0.04612455517053604,0.08751264959573746,0.024767132475972176,-0.03473920375108719,0.15718184411525726,0.17864224314689636,0.0803760439157486,0.20943869650363922,0.15394365787506104,-0.23696112632751465,-0.0013361455639824271,-0.019832048565149307,-0.1826496720314026,-0.17531755566596985,0.0216374471783638,0.09046369045972824,-0.06668523699045181,-0.07696865499019623,-0.08205975592136383,-0.09748651087284088,-0.03941863402724266,0.2676778733730316,0.22295740246772766,-0.06704296916723251,-0.23070506751537323,-0.3549754023551941,-0.051557812839746475,0.003404694376513362,0.24381372332572937,0.06976066529750824,-0.16969242691993713,0.3646755516529083,0.2135024517774582,-0.152175173163414,0.025704558938741684,0.36751797795295715,-0.03973366320133209,-0.07443225383758545,0.07462959736585617,-0.2697976231575012,-0.0716930404305458,0.09074877202510834,-0.14976716041564941,-0.29122164845466614,0.0891808271408081,0.23094649612903595,-0.026479164138436317,-0.11881960183382034,-0.1748352199792862,0.10868894308805466,0.015216600149869919,-0.054913681000471115,-0.04614247381687164,0.2525045871734619,0.10720761120319366,0.18592976033687592,0.11816414445638657,-0.1147536113858223,0.0023247834760695696,-0.08199325203895569,-0.08254793286323547,-0.07555519044399261,-0.00897750724107027,0.19690711796283722,-0.001922877854667604,-0.04488900676369667,-0.03726546838879585,0.03194458410143852,-0.11623354256153107,0.07585807144641876,0.049408115446567535,0.11849694699048996,-0.1070873811841011,-0.15104924142360687,-0.18739739060401917,0.0058792452327907085,-0.06558695435523987,0.07245073467493057,0.10417952388525009,-0.06400137394666672,-0.32990962266921997,-0.17712408304214478,-0.010163573548197746,0.26128262281417847,-0.017370743677020073,-0.21391494572162628,-0.11111374944448471,0.018387673422694206,-0.12025610357522964,-0.08250107616186142,0.0734848827123642,0.0316515788435936,0.01243374403566122,0.07730700075626373,-0.10748906433582306,-0.1751023232936859,-0.1433776319026947,0.052979566156864166,-0.1494816094636917,-0.055980321019887924,-0.02401680499315262,0.27672454714775085,0.28889039158821106,0.026744768023490906,0.16660332679748535,-0.2481086105108261,0.05876338481903076,-0.08784434199333191,-0.07832647114992142,-0.1800682693719864,-0.018074695020914078,0.11384501308202744,-0.04649012163281441,0.003731690114364028,0.026631133630871773,-0.07530400902032852,-0.1389358788728714,-0.012437887489795685,-0.03013627417385578,0.16297407448291779,-0.17759867012500763,-0.023368658497929573,-0.05412153899669647,-0.121695876121521,-0.10285487025976181,-0.015952803194522858,0.06412304192781448,0.07740850001573563,-0.14928612112998962,0.04044920578598976,0.05898021534085274,0.19373926520347595,-0.11684005707502365,-0.012480063363909721,0.025676758959889412,0.09683318436145782,0.03860769048333168,0.10738365352153778,-0.020154550671577454,-0.04113306477665901,0.17528000473976135,0.18026426434516907,0.33139583468437195,0.07387100160121918,0.0193864107131958,0.055894531309604645,0.013447104953229427,-0.209982767701149,0.23089702427387238,0.2576185166835785,0.20009072124958038,-0.1370777040719986,0.03669343143701553,-0.12567441165447235,-0.04835877567529678,-0.07909875363111496,-0.02682776004076004,-0.04096686840057373,-0.041658829897642136,-0.08745642751455307,-0.39044323563575745,-0.2559422552585602,-0.489990770816803,0.1560157835483551,-0.14167474210262299,-0.1779613047838211,-0.11687342822551727,0.03802043944597244,0.25596320629119873,-0.027502572163939476,-0.05630649998784065,-0.06650470942258835,0.39634719491004944,-0.0026737430598586798,0.07578503340482712,0.08154352009296417,-0.6562421917915344,-0.06623462587594986,0.01944190077483654,0.16020193696022034,0.18536916375160217,-0.39338940382003784,-0.09319712966680527,0.15754906833171844,-0.07914415001869202,-0.20843389630317688,-0.04322310909628868,-0.22461876273155212,-0.1681242734193802,-0.13875000178813934,-0.061382099986076355,-0.09251175075769424,-0.06008655205368996,-0.13577227294445038,-0.11435447633266449,0.15080858767032623,-0.23973186314105988,-0.11325366795063019,0.2083505243062973,-0.2872389554977417,-0.09598991274833679,0.12809783220291138,-0.34146809577941895,0.01686333864927292,-0.04665708169341087,-0.11542018502950668,-0.2808588445186615,-0.057432178407907486,0.276470810174942,0.001902337884530425,0.2779701054096222,0.08309432864189148,0.21211305260658264,-0.06190306693315506,-0.05266272649168968,-0.028076009824872017,0.10664970427751541,-0.009659616276621819,0.10793381184339523,0.07391967624425888,-0.2849849462509155,0.08395064622163773,-0.010935184545814991,-0.08637946844100952,-0.21067360043525696,0.28072917461395264,-0.10678353160619736,-0.13406065106391907,0.04341955482959747,-0.03579459711909294,-0.0527210608124733,-0.2796076536178589,-0.04715312272310257,0.02568620629608631,0.09670819342136383,0.09789779037237167,0.06413712352514267,-0.12579962611198425,-0.10681990534067154,0.287323534488678,0.22979237139225006,0.01902267336845398,0.12861627340316772,0.15354450047016144,0.09922802448272705,-0.18379798531532288,0.0002266765950480476,-0.09397216886281967,-0.09432528913021088,-0.009671744890511036,-0.03389214351773262,0.07379191368818283,-0.03346149995923042,0.05450393259525299,-0.060834258794784546,-0.10288888216018677,0.013253781013190746,-0.12634693086147308,0.029619181528687477,-0.027510641142725945,-0.018889235332608223,-0.06008224934339523,-0.05387766286730766,-0.17064201831817627,0.020853981375694275,0.09040091186761856,0.23182761669158936,0.008058273233473301,0.1463422030210495,-0.1637115478515625,-0.012673231773078442,0.14121168851852417,0.21159027516841888,-0.002245328389108181,0.12232985347509384,-0.2011346071958542,-0.11379063874483109,-0.0022807270288467407,0.11141912639141083,-0.0551985464990139,0.05021573603153229,0.09958800673484802,-0.24318702518939972,0.06944288313388824,-0.13467641174793243,-0.05209483951330185,-0.0532037727534771,0.20592178404331207,0.1479472815990448,0.045423172414302826,-0.21794824302196503,0.11709199100732803,0.08461422473192215,0.12684501707553864,0.044802408665418625,0.07868727296590805,-0.20189005136489868,0.06426029652357101,0.18178854882717133,0.06886998564004898,0.06322921812534332,-0.007837546989321709,-0.00005366540062823333,-0.0945887342095375,-0.05091001093387604,-0.22278933227062225,0.2923995554447174,0.015015917830169201,0.18553008139133453,0.05929665267467499,-0.23625868558883667,-0.12227818369865417,-0.048603568226099014,-0.15684472024440765,0.16751012206077576,0.00870264507830143,-0.282349556684494,0.20961903035640717,-0.0899389237165451,-0.19526104629039764,0.26883986592292786,-0.32778942584991455,0.17348860204219818,-0.23503895103931427,-0.023886656388640404,0.04304797947406769,-0.023309562355279922,-0.06365499645471573,0.27291783690452576,0.15877443552017212,-0.09892624616622925,0.34360554814338684,-0.299845427274704,0.20831254124641418,-0.18112733960151672,-0.17490358650684357,0.1088305190205574,0.08914664387702942,0.12259022146463394,0.12068550288677216,-0.19004927575588226,-0.10805396735668182,0.24992720782756805,0.2200632393360138,0.06834644824266434,-0.2379664182662964,-0.0608566552400589,-0.10029809921979904,-0.14082448184490204,0.05616093799471855,0.08495546877384186,0.12529414892196655,0.0807800143957138,0.3497304916381836,-0.12248023599386215,-0.1577260047197342,-0.06844085454940796,0.07715317606925964,0.0885421559214592,0.006097733974456787,0.12549123167991638,-0.04644769802689552,0.06902623176574707,0.10497858375310898,0.16190995275974274,0.14983037114143372,0.0349789597094059,0.17851431667804718,0.06931522488594055,-0.23937921226024628,0.028256261721253395,-0.0673915445804596,0.04349638894200325,-0.028038809075951576,-0.19048316776752472,0.07814391702413559,0.1998794674873352,-0.104291632771492,0.16040700674057007,-0.16102276742458344,0.22118490934371948,0.23442122340202332,0.03513368219137192,0.22394578158855438,0.08913133293390274,0.08231738954782486,0.1301315277814865,-0.1629365086555481,0.21088938415050507,-0.05444213002920151,-0.024698670953512192,-0.11287687718868256,-0.029894540086388588,0.09496387839317322,-0.06794197112321854,0.07540405541658401,0.015328681096434593,-0.08206210285425186,-0.021911511197686195,-0.15578997135162354,0.06404472887516022,0.009722277522087097,-0.5451528429985046,0.1031382828950882,0.030397992581129074,0.04970085620880127,-0.14824968576431274,-0.08811192959547043,0.2792874872684479,-0.15076354146003723,0.10352224111557007,0.02457680180668831,-0.03425151854753494,0.11724771559238434,0.13039126992225647,0.09324899315834045,-0.00005441309986053966,-0.3387247920036316,0.09511679410934448,-0.16229300200939178,0.1797722727060318,0.06735123693943024,0.21176107227802277,-0.07680855691432953,-0.0752037987112999,0.1143898293375969,-0.28968650102615356,0.0636434257030487,-0.3311730921268463,-0.0859014168381691,0.20106525719165802,0.039169445633888245,-0.14688098430633545,0.0448058657348156,-0.14519928395748138,-0.06623934954404831,0.1674860417842865,-0.02382788248360157,-0.011244859546422958,-0.22195278108119965,0.08677434176206589,-0.06211462616920471,0.09670744091272354,0.07945921272039413,0.0512864850461483,0.10778689384460449,-0.2363768219947815,-0.10390064120292664,-0.13652350008487701,-0.006123865023255348,-0.14404815435409546,0.17777276039123535,-0.12506148219108582,-0.04796871170401573,-0.06374095380306244,0.27848687767982483,-0.14382430911064148,-0.053033679723739624,0.09847158938646317,-0.08502531796693802,-0.18042337894439697,0.035287316888570786,0.11237605661153793,-0.03759504854679108,0.04633500054478645,0.2882324159145355,0.0191029142588377,0.13226239383220673,-0.007616004440933466,-0.15676017105579376,-0.08022680133581161,0.1724225878715515,-0.07958508282899857,-0.005394317209720612,0.012995931319892406,0.14912749826908112,0.019929062575101852,0.01717534475028515,0.19184346497058868,0.15105365216732025,0.3038331866264343,0.14306798577308655,0.23426498472690582,-0.17211021482944489,0.07261811196804047,-0.09361635148525238,-0.029023924842476845,0.19286194443702698,0.06243707984685898,-0.09061459451913834,0.30000418424606323,-0.047274839133024216,0.10241933912038803,-0.11392626166343689,0.04058673605322838,0.2384055256843567,-0.0574510395526886,0.043259721249341965,0.05132196471095085,-0.20283426344394684,-0.017346205189824104,0.011678075417876244,-0.06160564720630646,-0.0747721940279007,-0.019980773329734802,-0.12407365441322327,-0.0797291249036789,0.19125612080097198,0.20847634971141815,-0.06783483922481537,-0.1682753562927246,0.012764432467520237,0.05170527845621109,-0.1779288500547409,0.11010152101516724,-0.07768861949443817,-0.09298442304134369,-0.05110401660203934,0.011156005784869194,-0.052312590181827545,-0.1807166188955307,-0.034330304712057114,-0.023762166500091553,0.172975093126297,-0.0026320763863623142,0.16585363447666168,0.1269930750131607,-0.11646056175231934,0.0070167710073292255,-0.006190404761582613,-0.2271936535835266,-0.02209043875336647,-0.08759503811597824,0.14728811383247375,0.01107627060264349,0.0003559075703378767,0.04352041706442833,0.12872707843780518,-0.17027704417705536,-0.09190738201141357,0.022284379228949547,-0.012268041260540485,-0.02166682854294777,0.10473918914794922,-0.07415241003036499,-0.2785247564315796,0.07776878774166107,-0.1272219568490982,-0.027562320232391357,-0.009451284073293209,0.11791098862886429,0.2778203785419464,-0.042439043521881104,-0.10124953091144562,0.014414684846997261,-0.012310425750911236,0.004143222700804472,-0.04828174039721489,0.005867524538189173,0.19939762353897095,-0.28161293268203735,-0.08870882540941238,-0.10832656919956207,0.19178569316864014,-0.07926388829946518,-0.10002900660037994,0.020216990262269974,-0.06581542640924454,-0.16485443711280823,-0.11586639285087585,0.016620341688394547,-0.09492474794387817,0.007744418457150459,-0.03996412828564644,-0.038070060312747955,0.13572418689727783,0.10392835736274719,-0.030537208542227745,0.13742052018642426,0.08785293996334076,-0.007077474612742662,-0.0317598320543766,-0.29192304611206055,-0.06263310462236404,0.007073384243994951,0.17289462685585022,0.046112410724163055,0.15238738059997559,-0.038348596543073654,-0.20453095436096191,0.04296669363975525,-0.03903277590870857,0.15475529432296753,0.023422161117196083,0.00789691973477602,0.02794789895415306,0.16350547969341278,-0.11904624849557877,0.00723732216283679,-0.22108235955238342,0.13824598491191864,-0.08501967787742615,0.07575799524784088,0.18674276769161224,-0.08965545147657394,0.09646157920360565,-0.12526479363441467,-0.05620913207530975,0.019493043422698975,-0.02201744355261326,-0.12649355828762054,-0.20449651777744293,-0.025444412603974342,-0.07452435791492462,-0.06146997958421707,-0.15205147862434387,0.08594395220279694,0.023308439180254936,-0.08977772295475006,0.16742433607578278,-0.17853130400180817,-0.12205547839403152,0.02811501920223236,-0.07078170776367188,0.125135600566864,0.005921157076954842,0.18113328516483307,0.11913811415433884,-0.11831879615783691,-0.1326984018087387,0.0702546015381813,0.09924013912677765,0.007565765641629696,-0.042545974254608154,0.03768423572182655,0.03411610797047615,-0.00140008341986686,0.06757359206676483,0.567909836769104,0.18599575757980347,0.479436457157135,-0.6459198594093323,-0.277976930141449,0.201078400015831,0.14867854118347168,-0.17115682363510132,0.38430118560791016,0.1531398743391037,-0.837145209312439,0.2984873950481415,-0.10974200814962387,-0.6479945778846741,0.03448593243956566,-0.3003426194190979,-0.20549899339675903,-0.26977941393852234,0.2820407748222351,-0.221099391579628,0.10652118176221848,0.3448069393634796,0.04879927262663841,-0.09790004044771194,-0.2629901170730591,-0.006526196375489235,-0.11967116594314575,0.051124922931194305,0.23181423544883728,-0.1672486811876297,0.1590663194656372,-0.10546037554740906,-0.13937734067440033,-0.0649748146533966,0.06879103928804398,0.03002145141363144,0.07139463722705841,0.010917499661445618,0.47526758909225464,-0.19911055266857147,-0.17592331767082214,0.029739372432231903,-0.16195827722549438,0.2816944718360901,0.0474047027528286,0.140387624502182,0.07494019716978073,-0.0053589725866913795,-0.13814811408519745,0.02243909426033497,-0.1477762907743454,-0.3464387059211731,-0.1840066760778427,-0.3519427478313446,-0.15903377532958984,0.11976747959852219,0.18486250936985016,0.04493662342429161,0.0239630825817585,-0.14208753407001495,0.16964295506477356,0.09490235894918442,0.01817495748400688,0.2760438323020935,-0.210338294506073,0.15176156163215637,-0.20648036897182465,0.3970988094806671,0.232542484998703,0.2837366461753845,0.09830876439809799,-0.016381025314331055,-0.09469232708215714,-0.12480143457651138,0.08637431263923645,-0.11529354751110077,-0.11740459501743317,0.15441769361495972,-0.07632528245449066,-0.11188556253910065,0.31633391976356506,-0.306888610124588,0.004099265206605196,0.058392420411109924,0.08557760715484619,0.018518026918172836,0.13962224125862122,-0.13934655487537384,0.07927218079566956,0.3653065264225006,0.29664576053619385,0.0971292033791542,-0.11410366743803024,-0.2520138919353485,0.0858752429485321,-0.2397027313709259,-0.06245734915137291,0.18031057715415955,0.1348722130060196,0.06518244743347168,-0.21222983300685883,0.10271312296390533,0.17331057786941528,-0.06844501942396164,0.20954951643943787,0.12064453959465027,-0.3227919936180115,0.2760666012763977,0.09121882915496826,-0.08479993790388107,-0.24856141209602356,-0.0014800515491515398,0.04759689420461655,-0.08435668051242828,-0.13654886186122894,0.09928157180547714,0.06244272738695145,-0.07116474956274033,0.3782790005207062,-0.009418030269443989,-0.266715407371521,0.06711989641189575,0.13727696239948273,0.11856535822153091,0.11178017407655716,-0.0725763738155365,0.03117329068481922,-0.14073911309242249,-0.05707627907395363,0.10326553881168365,-0.1541946679353714,0.057592593133449554,0.27520284056663513,-0.28437721729278564,0.07028616964817047,0.20263773202896118,-0.09204182028770447,-0.05793051794171333,0.02550426684319973,0.05042847990989685,-0.10074632614850998,0.14352285861968994,0.23171366751194,0.04188850522041321,-0.1847868412733078,0.18555669486522675,-0.1570344865322113,0.08893346786499023,0.2624855935573578,0.3606703281402588,-0.5207841396331787,-0.12462354451417923,0.01347699947655201,-0.029986774548888206,-0.22551317512989044,-0.3480064272880554,0.16393722593784332,0.13118712604045868,-0.08018900454044342,0.07137513905763626,-0.02222980000078678,0.23860464990139008,0.07583344727754593,0.03914260119199753,-0.06605983525514603,0.19482186436653137,-0.12660612165927887,0.1422206461429596,-0.3103586435317993,-0.12071450054645538,0.1304512619972229,-0.1675599217414856,0.28999653458595276,-0.17666852474212646,0.4050329029560089,-0.1125403344631195,-0.1452575922012329,0.15705518424510956,-0.30803072452545166,-0.014644277282059193,-0.2416858822107315,-0.0946144312620163,0.01713750697672367,-0.3400132656097412,0.16571365296840668,-0.03877953067421913,-0.06283534318208694,0.010993614792823792,-0.12805047631263733,0.2780749499797821,0.07758846879005432,-0.04424649104475975,-0.20248296856880188,0.06024813652038574,0.00808706320822239,0.019516101107001305,-0.0439208447933197,-0.1733604371547699,0.23517805337905884,-0.0975140705704689,-0.23356744647026062,0.10160809010267258,0.2911599278450012,0.18194229900836945,-0.10166684538125992,0.21971812844276428,-0.11776652187108994,-0.1860472410917282,-0.09219043701887131,0.29736363887786865,0.0015193636063486338,0.3327903747558594,-0.15770931541919708,0.021086955443024635,-0.1302873194217682,0.021885020658373833,0.11875681579113007,0.06976491212844849,-0.22174949944019318,-0.18142782151699066,-0.017378155142068863,0.2616964876651764,0.09273818135261536,-0.19192558526992798,0.0072969309985637665,-0.11855906248092651,0.17799600958824158,0.3565983176231384,0.011307003907859325,0.052759237587451935,-0.2335248440504074,-0.014256030321121216,0.04636944830417633,0.32925719022750854,0.10879967361688614,-0.10701332986354828,-0.2929059863090515,-0.11203315854072571,-0.16742798686027527,0.16922730207443237,0.20491327345371246,-0.010088742710649967,0.1402515172958374,0.24436676502227783,-0.10530313104391098,-0.1927620768547058,0.06252981722354889,0.025721941143274307,-0.09023510664701462,0.01036894228309393,-0.06995777785778046,-0.1594238132238388,0.23146143555641174,0.11800850182771683,0.05699888989329338,0.037452783435583115,-0.146212637424469,0.0836828202009201,-0.250518798828125,-0.19886910915374756,-0.1991323083639145,-0.3544715940952301,0.051483239978551865,-0.081505686044693,-0.15623916685581207,0.030580375343561172,-0.20073992013931274,-0.145919069647789,0.03485598415136337,0.0029031892772763968,0.19395411014556885,0.15247461199760437,-0.1460958570241928,0.041086386889219284,0.09842687845230103,-0.12165489047765732,-0.041831232607364655,0.00940126832574606,0.06652803719043732,0.05988112464547157,-0.13141363859176636,0.1827777624130249,0.0633857250213623,0.0703897550702095,-0.0006420855061151087,-0.1500089466571808,0.004939899779856205,0.08281590789556503,-0.0012773950584232807,-0.1595110297203064,0.17779670655727386,0.025396285578608513,0.07235214859247208,-0.035092372447252274,0.24892181158065796,0.1620054841041565,0.007829788140952587,0.08454567193984985,-0.04661707207560539,0.0797039121389389,0.09219186753034592,-0.0591195747256279,-0.1758844256401062,-0.012579509057104588,0.15460205078125,0.0322413332760334,0.0813695415854454,0.04015130177140236,0.16986651718616486,-0.009785712696611881,0.2626683712005615,-0.07013141363859177,-0.06298059970140457,-0.07165156304836273,0.0025319543201476336,-0.001054809195920825,-0.1763983964920044,0.01198862586170435,-0.00377094023860991,0.11733004450798035,0.011471607722342014,0.04191333428025246,0.005605728831142187,0.03086785413324833,-0.02194630168378353,0.1767745465040207,0.07818172872066498,-0.12740111351013184,0.009322288446128368,0.01762155257165432,0.19074322283267975,0.009911810047924519,0.09024609625339508,0.004060292616486549,0.2926092743873596,0.029907817021012306,0.014886426739394665,0.05313076823949814,0.04478054121136665,0.025506047531962395,0.02880878560245037,0.04093856364488602,-0.15905903279781342,-0.19662924110889435,0.010143514722585678,-0.0660608634352684,0.24681559205055237,-0.05115906149148941,0.1934649795293808,-0.014012390747666359,0.1340443342924118,0.06559678167104721,-0.1584770679473877,0.11831308901309967,-0.10585547983646393,0.12576930224895477,0.09337395429611206,-0.1437443196773529,-0.19102804362773895,-0.051747143268585205,-0.011560970917344093,0.21919704973697662,0.07288394123315811,0.02703244797885418,0.03784332051873207,-0.04246078431606293,0.15480521321296692,-0.03348934277892113,-0.06624852120876312,-0.09410277754068375,-0.1492135226726532,-0.15064886212348938,0.08250065892934799,-0.039338186383247375,-0.05861394852399826,0.015864955261349678,-0.000010293390914739575,-0.059234123677015305,0.10402920097112656,0.029375234618782997,0.04978588968515396,-0.0769132673740387,-0.1978183090686798,-0.08409075438976288,-0.05785159394145012,-0.16993698477745056,0.12909512221813202,0.10944067686796188,0.15057331323623657,-0.0878223180770874,-0.2714327871799469,0.26580917835235596,-0.03484661877155304,-0.003185173962265253,0.02061457559466362,-0.12879228591918945,0.08519280701875687,-0.0747055932879448,-0.1440378576517105,-0.2198055535554886,0.07226011157035828,0.18300774693489075,0.010397778823971748,-0.02548699639737606,-0.27588900923728943,-0.21209554374217987,0.052689649164676666,-0.002670462243258953,0.11034146696329117,-0.039975278079509735,-0.0023504337295889854,-0.11298152804374695,-0.1778046190738678,-0.004444445949047804,0.09955388307571411,0.20353949069976807,0.13490499556064606,-0.10062526166439056,0.08943203836679459,0.007142991293221712,0.0007019902695901692,0.25835511088371277,0.015635164454579353,-0.06258705258369446,0.008310548029839993,-0.005305960308760405,-0.14638379216194153,0.08365580439567566,0.1796271651983261,0.16631007194519043,0.011476081795990467,-0.1748209446668625,-0.02748347632586956,-0.2370806485414505,0.1633099913597107,0.012065857648849487,-0.007916614413261414,-0.201094850897789,0.03864669427275658,0.2671012878417969,-0.14425787329673767,0.02445649728178978,-0.22286275029182434,0.10599600523710251,0.04550689086318016,0.03706255182623863,0.09968335926532745,-0.060809578746557236,0.02598392218351364,0.026337411254644394,0.09660017490386963,-0.09393245726823807,0.037702810019254684,0.09434192627668381,0.09036890417337418,-0.14188045263290405,-0.040093690156936646,-0.13350120186805725,0.06715123355388641,-0.20906689763069153,-0.18849708139896393,-0.09015486389398575,0.012485077604651451,0.10270387679338455,-0.006643486209213734,-0.16467337310314178,-0.08256901055574417,-0.008037458173930645,-0.01019726786762476,0.048724837601184845,-0.04427264630794525,-0.06916727870702744,0.04155801981687546,-0.005982858594506979,0.14987462759017944,0.0592777281999588,-0.030838966369628906,0.13632090389728546,0.1177644431591034,0.04977886751294136,0.15885968506336212,0.19966767728328705,-0.09034555405378342,-0.15197588503360748,-0.014538092538714409,0.1772463172674179,0.016569634899497032,-0.08831501007080078,0.01857871748507023,-0.2487516701221466,0.19700279831886292,0.13452787697315216,0.02456957846879959,-0.02224680967628956,0.10829704999923706,0.2818063199520111,-0.055051375180482864,-0.036209579557180405,0.0006798761314712465,-0.03362646326422691,-0.015857677906751633,0.11942828446626663,-0.006896853446960449,0.06049611046910286,-0.04244251549243927,0.05095021426677704,0.15686649084091187,-0.0037013657856732607,0.009526803158223629,0.05575229600071907,-0.06316860765218735,-0.005374207627028227,0.08129053562879562,-0.018133293837308884,-0.19057974219322205,0.055721208453178406,-0.15454193949699402,0.04539626091718674,-0.06773465871810913,-0.12542207539081573,0.13659276068210602,-0.09055965393781662,0.14362819492816925,-0.15137618780136108,0.12787200510501862,-0.019417639821767807,-0.021569259464740753,0.22343727946281433,0.11023366451263428,-0.08794587105512619,-0.17796079814434052,0.01400170661509037,0.11538057029247284,0.17755259573459625,0.4340507984161377,-0.16506339609622955,-0.0027011048514395952,-0.13347968459129333,0.018837619572877884,0.016781220212578773,-0.06682083755731583,0.181590273976326,-0.26508691906929016,-0.07468853145837784,0.024911783635616302,0.05228520557284355,0.23106195032596588,-0.030975209549069405,0.06492604315280914,-0.09497307986021042,0.2574595510959625,-0.13517050445079803,-0.16022633016109467,-0.07575617730617523,0.018817409873008728,-0.026620883494615555,0.1368807703256607,-0.010045710019767284,0.02568856254220009,-0.005255831405520439,-0.03375977277755737,-0.08976546674966812,-0.053489137440919876,0.08903554826974869,0.023477207869291306,0.00854016188532114,-0.14913931488990784,-0.08580487966537476,-0.10883078724145889,0.0029978195670992136,0.12386594712734222,0.030271008610725403,-0.021618833765387535,0.1647866666316986,0.1797591745853424,0.12234382331371307,-0.03329358249902725,-0.053468428552150726,-0.09930329769849777,-0.11129666119813919,-0.0489291213452816,-0.08123080432415009,-0.3506300747394562,-0.016247373074293137,-0.05337398871779442,-0.16512198746204376,-0.09848269820213318,0.15572120249271393,0.11982546001672745,0.3448520302772522,0.2902524471282959,0.2531315088272095,0.06252579391002655,-0.0951002985239029,-0.2318444401025772,0.05080694705247879,0.07791626453399658,-0.14830948412418365,-0.12355583161115646,-0.17049385607242584,-0.23680324852466583,-0.11495018005371094,0.16200776398181915,-0.09631483256816864,0.09138142317533493,-0.00968188513070345,-0.28112006187438965,0.22192621231079102,0.06683865934610367,-0.16595768928527832,-0.1256936639547348,0.03371603414416313,-0.16180488467216492,0.005702388472855091,0.1702975481748581,-0.2787255644798279,0.3152114152908325,0.227101668715477,0.02159503661096096,-0.2695107161998749,-0.15939700603485107,0.015739016234874725,-0.18316490948200226,0.09835473448038101,-0.02687930129468441,0.2688198387622833,0.13130079209804535,0.053725507110357285,0.10587748885154724,0.14897584915161133,-0.09585623443126678,-0.2742730677127838,0.17584705352783203,0.1367444097995758,0.15763086080551147,-0.04126691073179245,-0.02820526994764805,0.07903467118740082,0.21948115527629852,-0.041539013385772705,-0.11847181618213654,-0.008142450824379921,-0.037381675094366074,0.07306241989135742,-0.05734343081712723,0.1698697805404663,-0.16821922361850739,0.0062436009757220745,-0.0031113403383642435,0.11005178093910217,0.03734922036528587,-0.08742871135473251,0.1436249017715454,-0.05152525007724762,-0.050122879445552826,-0.10542888194322586,0.09357975423336029,-0.027988251298666,-0.22225649654865265,0.10496322065591812,0.1494385451078415,-0.005706932861357927,0.0507737472653389,0.05882362276315689,-0.005486603826284409,-0.22133807837963104,-0.06016313284635544,-0.14900384843349457,0.08505726605653763,-0.05518481880426407,-0.27765828371047974,-0.007310271263122559,0.06078574061393738,-0.11212799698114395,0.1451057642698288,-0.09584850072860718,-0.23471269011497498,-0.007575917989015579,0.33099180459976196,-0.028677327558398247,-0.034288208931684494,-0.24766568839550018,-0.11217250674962997,-0.04575687274336815,-0.047574229538440704,-0.30668291449546814,0.2227579802274704,0.4434228241443634,-0.017385417595505714,-0.05722494795918465,0.06109670549631119,-0.07188715785741806,-0.04536450281739235,0.11524765193462372,-0.14857050776481628,-0.07920235395431519,-0.06808564066886902,-0.13463017344474792,-0.049520041793584824,0.11382289230823517,-0.2757270932197571,0.0037972612772136927,-0.3285355865955353,0.007758299354463816,-0.03130008652806282,-0.2739073634147644,0.18436183035373688,-0.07089512795209885,0.11669504642486572,0.0396118126809597,-0.18116913735866547,-0.27330613136291504,0.41267111897468567,-0.004361307248473167,-0.16684898734092712,-0.0020483669359236956,-0.29257121682167053,-0.18207837641239166,0.027495551854372025,0.18490171432495117,-0.017123330384492874,0.21434257924556732,0.05266610532999039,0.05156416445970535,0.2553189694881439,-0.05624568089842796,-0.12658633291721344,-0.04991763457655907,0.13991405069828033,0.0693540871143341,0.10608908534049988,-0.10865017026662827,-0.1020468920469284,0.21633395552635193,-0.029993796721100807,-0.08602678775787354,0.0540592186152935,0.02807759866118431,-0.08992722630500793,0.14283491671085358,-0.09896647185087204,-0.004875912796705961,0.027416056022047997,0.05739864706993103,0.06827520579099655,0.09915358573198318,0.10465699434280396,-0.22578835487365723,0.22056353092193604,0.0515112467110157,0.07456115633249283,-0.006662593223154545,-0.09237657487392426,-0.008035778999328613,-0.19948768615722656,-0.003846121719107032,-0.10492929816246033,0.09344416856765747,-0.11905215680599213,0.04484423249959946,-0.04882901906967163,-0.003841604571789503,0.0840846598148346,-0.13890281319618225,0.015068561770021915,-0.05093754082918167,-0.16301505267620087,-0.2031659334897995,-0.09263799339532852,0.21202965080738068,0.042275696992874146,-0.07448367029428482,0.10323788225650787,0.025461070239543915,-0.053855400532484055,-0.07681358605623245,-0.27053016424179077,-0.16076582670211792,0.037257689982652664,-0.01721194200217724,-0.04800275340676308,-0.1364741027355194,0.10011248290538788,-0.12842749059200287,0.06108872592449188,0.05299368500709534,-0.10770568996667862,-0.08099234104156494,-0.23940414190292358,0.011472308076918125,-0.01059922855347395,-0.15429653227329254,-0.036716509610414505,0.08360657095909119,-0.045642364770174026,-0.20443139970302582,0.36442282795906067,0.08167997002601624,0.13669298589229584,-0.09840155392885208,0.029010150581598282,-0.038418542593717575,-0.24351996183395386,-0.22637824714183807,-0.06375066936016083,0.20130302011966705,-0.11121431738138199,-0.23240019381046295,-0.17840677499771118,0.1787288635969162,0.12594889104366302,